w_t _weights_ip1[/*40][80*/] = {
-0.0723729133605957,
0.06091069057583809,
0.059523094445466995,
-0.11042442172765732,
-0.08259865641593933,
0.10117579996585846,
0.012430070899426937,
-0.10014071315526962,
0.047817476093769073,
0.09980782866477966,
0.016496730968356133,
-0.07132091373205185,
0.06109442189335823,
0.09596718847751617,
-0.05481933429837227,
0.00888882391154766,
-0.030235910788178444,
-0.06908069550991058,
-0.07404003292322159,
-0.09199759364128113,
-0.001517629250884056,
0.0663035586476326,
-0.07453542202711105,
0.07920841872692108,
0.0013014414580538869,
-0.09925420582294464,
-0.05322331562638283,
0.03654301539063454,
0.06907067447900772,
-0.07533451914787292,
-0.09510321170091629,
-0.0152262719348073,
-0.049333423376083374,
-0.030103156343102455,
0.08542600274085999,
0.0990477204322815,
0.11116064339876175,
0.07871823012828827,
-0.018695687875151634,
-0.0720873549580574,
-0.005358289461582899,
-0.11445023864507675,
0.11286162585020065,
0.05745575204491615,
0.08552401512861252,
-0.07832831144332886,
0.06337858736515045,
0.03350554406642914,
0.08350160717964172,
0.011753829196095467,
-0.025340165942907333,
-0.014943612739443779,
-0.09673739224672318,
-0.07931164652109146,
-0.07448118180036545,
-0.06069941446185112,
-0.008867010474205017,
-0.016541730612516403,
-0.06383727490901947,
0.006491201464086771,
-0.10125430673360825,
-0.0175681971013546,
-0.048441629856824875,
0.030801404267549515,
-0.08897515386343002,
-0.11534110456705093,
0.016650574281811714,
0.10089807957410812,
0.00043478209408931434,
0.007040753960609436,
-0.010700731538236141,
-0.08727800101041794,
-0.06419913470745087,
0.02242833748459816,
0.0033007636666297913,
0.049528125673532486,
0.08544308692216873,
0.007165335584431887,
0.04151209071278572,
-0.05745669826865196,
-0.05726577714085579,
-0.06982342153787613,
0.10578250139951706,
0.1069873720407486,
0.0982557013630867,
0.011238686740398407,
0.011940683238208294,
-0.10723176598548889,
-0.04033205285668373,
0.024122189730405807,
0.0543295182287693,
0.04056112468242645,
-0.08764912188053131,
0.1198403611779213,
-0.09850800037384033,
0.09798433631658554,
-0.09679919481277466,
-0.04038223251700401,
0.07152891904115677,
-0.042752303183078766,
0.017688732594251633,
-0.07413820177316666,
-0.10699398070573807,
-0.010003329254686832,
-0.026500089094042778,
0.06925863027572632,
-0.01752537116408348,
0.06462394446134567,
0.036894507706165314,
0.01635836809873581,
0.04567480459809303,
-0.10903871059417725,
-0.10842970758676529,
-0.07414089888334274,
-0.05592140182852745,
-0.08189932256937027,
0.026598548516631126,
0.018943525850772858,
-0.06247175484895706,
-0.10911713540554047,
-0.09630134701728821,
0.023571182042360306,
0.10035085678100586,
0.0787520557641983,
0.09861166030168533,
0.018245356157422066,
-0.0026824965607374907,
0.004291407763957977,
-0.04517875611782074,
0.11496042460203171,
0.10308614373207092,
-0.044571589678525925,
0.015114069916307926,
-0.017627481371164322,
0.091520756483078,
-0.014249904081225395,
-0.05890769138932228,
-0.018286380916833878,
0.0594780258834362,
-0.0614582896232605,
-0.005524211563169956,
0.07207627594470978,
0.09460286051034927,
0.07762372493743896,
-0.057112112641334534,
-0.062080107629299164,
0.06363972276449203,
-0.05097442865371704,
-0.09626361727714539,
0.09411315619945526,
0.004931642673909664,
-0.018570350483059883,
0.06986121833324432,
0.014366960152983665,
-0.06823048740625381,
0.11578229814767838,
-0.05325304716825485,
0.03837089613080025,
-0.08747050166130066,
0.11365858465433121,
0.03679618611931801,
-0.07553716748952866,
-0.05305194854736328,
0.047250837087631226,
-0.0032896543852984905,
0.11238071322441101,
0.07010403275489807,
-0.0004087646375410259,
-0.027419915422797203,
-0.05821573734283447,
-0.07287736237049103,
0.06785274296998978,
-0.06324507296085358,
0.09376110881567001,
-0.12444254010915756,
0.023518506437540054,
0.018801385536789894,
0.01744220033288002,
-0.07610936462879181,
0.09230571985244751,
-0.07333994656801224,
-0.022041957825422287,
0.021550562232732773,
0.10093354433774948,
-0.05179011449217796,
0.10152983665466309,
-0.03414255380630493,
0.08879096806049347,
0.03622996434569359,
-0.07526551932096481,
0.009578196331858635,
0.05826304852962494,
0.019518345594406128,
0.09303893148899078,
-0.09751307964324951,
-0.05526665598154068,
0.006404779851436615,
0.044454336166381836,
0.00013276250683702528,
-0.05667281150817871,
0.020984791219234467,
-0.03280035778880119,
-0.040302637964487076,
0.07333825528621674,
-0.016884785145521164,
0.011496763676404953,
-0.019236916676163673,
0.06829708069562912,
-0.10108838230371475,
0.0812169536948204,
0.07627002894878387,
-0.00448625860735774,
-0.013331813737750053,
0.01005458552390337,
0.06373802572488785,
0.09218887239694595,
-0.0642022043466568,
-0.06924895942211151,
0.09228090196847916,
-0.03585237264633179,
0.02391757071018219,
0.025986112654209137,
-0.056547924876213074,
0.05727659538388252,
0.053228843957185745,
-0.006163985468447208,
-0.06016335263848305,
-0.015856381505727768,
0.02275891788303852,
-0.09187217056751251,
-0.11809910088777542,
-0.07738028466701508,
-0.056382883340120316,
-0.016403598710894585,
-0.0166592039167881,
-0.10138464719057083,
-0.046466924250125885,
-0.003834607545286417,
0.08285177499055862,
-0.09817158430814743,
0.03166907653212547,
0.06280754506587982,
0.07647177577018738,
-0.015857812017202377,
-0.0820632055401802,
0.028130201622843742,
0.08973314613103867,
0.05775110423564911,
0.05733511596918106,
-0.08966990560293198,
-0.09734579920768738,
-0.005861307960003614,
0.02950298972427845,
-0.0997549444437027,
0.03942103311419487,
0.09179960191249847,
0.08343879878520966,
-0.045895226299762726,
0.019990235567092896,
-0.032718952745199203,
0.03203964605927467,
0.05587901547551155,
0.09026739746332169,
-0.08627806603908539,
0.1059485375881195,
0.08974218368530273,
-0.09219604730606079,
-0.03497762605547905,
-0.06840577721595764,
-0.05909496918320656,
0.056015100330114365,
-0.0061492761597037315,
-0.07301963865756989,
-0.03431697189807892,
0.004654772114008665,
0.041089415550231934,
0.05117392539978027,
-0.05692249536514282,
0.010521845892071724,
0.053385913372039795,
0.10409104824066162,
0.09266303479671478,
0.05877590551972389,
0.009689945727586746,
0.007352195680141449,
-0.03429856896400452,
-0.10010088235139847,
-0.10158386826515198,
0.04935246333479881,
-0.016472091898322105,
0.09973785281181335,
-0.018607599660754204,
-0.08822967857122421,
0.08758125454187393,
-0.01164508517831564,
-0.08682496100664139,
-0.09137903898954391,
-0.08981465548276901,
0.009435475803911686,
0.10746118426322937,
-0.008439051918685436,
0.08152107149362564,
-0.03221632167696953,
-0.08913636952638626,
0.09254138916730881,
0.07433559000492096,
-0.0010536429472267628,
0.11903589963912964,
0.02240472286939621,
-0.014663787558674812,
-0.06980713456869125,
-0.07560446858406067,
-0.0487426295876503,
0.05450716242194176,
-0.021426349878311157,
0.08808128535747528,
-0.04507152736186981,
0.02307734452188015,
-0.034588523209095,
-0.07697179168462753,
0.038086116313934326,
0.019376100972294807,
-0.049458909779787064,
-0.00814814493060112,
0.09851447492837906,
-0.08851304650306702,
0.07089146971702576,
-0.03994448110461235,
0.10055115818977356,
0.0978335589170456,
0.07345151156187057,
0.0765555128455162,
-0.020501650869846344,
0.06524211913347244,
-0.08199514448642731,
0.04232316464185715,
0.01769183948636055,
-0.01350964792072773,
0.08954891562461853,
0.019653664901852608,
-0.07357241213321686,
-0.044447146356105804,
0.04214341193437576,
0.057939641177654266,
-0.05848325043916702,
-0.08049354702234268,
-0.06193706393241882,
0.07547471672296524,
0.014636421576142311,
-0.07672794908285141,
0.04703671485185623,
0.04809930548071861,
-0.02751104161143303,
0.0310065895318985,
0.09525759518146515,
-0.003600896103307605,
-0.06185126304626465,
-0.012686134316027164,
0.06389721482992172,
-0.0794411152601242,
0.04108494147658348,
0.00905600469559431,
0.058554451912641525,
-0.06424911320209503,
0.05697678402066231,
-0.10412685573101044,
0.05945554003119469,
-0.1058913841843605,
-0.053831085562705994,
-0.07088357210159302,
0.06850451231002808,
-0.061130817979574203,
0.07209625095129013,
0.08113014698028564,
-0.020361552014946938,
0.07184309512376785,
0.06013249605894089,
-0.07334015518426895,
0.09487264603376389,
0.058115988969802856,
0.09330978989601135,
0.0913122370839119,
-0.017369303852319717,
-0.08934791386127472,
0.08675239980220795,
0.10480612516403198,
-0.0975038930773735,
0.09872863441705704,
0.07900100201368332,
0.038306985050439835,
-0.0801762193441391,
0.1080850288271904,
-0.018517877906560898,
-0.028642108663916588,
-0.0612453818321228,
-0.008388645015656948,
0.0592583492398262,
-0.09434287250041962,
-0.012732618488371372,
-0.01639634743332863,
0.04158568009734154,
-0.055117167532444,
-0.010967334732413292,
0.05024551972746849,
-0.053793128579854965,
0.0835714265704155,
0.06964763253927231,
0.12008418142795563,
0.08858015388250351,
-0.10100975632667542,
0.04872209206223488,
-0.07916523516178131,
-0.04079543426632881,
0.07175303250551224,
-0.03993464261293411,
-0.05425264686346054,
0.056956689804792404,
-0.057915475219488144,
0.01565416529774666,
0.08150959014892578,
-0.08580737560987473,
0.004114269744604826,
0.02223092131316662,
0.11290906369686127,
-0.02189488895237446,
-0.060266368091106415,
-0.10774561017751694,
-0.019432662054896355,
-0.039112795144319534,
0.039740804582834244,
-0.03595711663365364,
0.09836804121732712,
-0.026386244222521782,
-0.037680868059396744,
-0.0023163561709225178,
0.08170802891254425,
0.006287029944360256,
-0.10754017531871796,
0.0007927728584036231,
-0.0866977646946907,
0.008492520079016685,
-0.11073700338602066,
0.11914045363664627,
-0.017623746767640114,
-0.04839867725968361,
0.06003675237298012,
-0.0971054881811142,
0.0451081283390522,
0.01975632645189762,
0.0019267818424850702,
0.010531231760978699,
-0.08190399408340454,
0.10010401159524918,
-0.07222048193216324,
0.10499612987041473,
-0.09828630834817886,
-0.07169774919748306,
0.04025537520647049,
0.08563590049743652,
0.020127464085817337,
-0.01312557514756918,
0.07227056473493576,
0.06025193631649017,
-0.06444361060857773,
0.05278361216187477,
-0.022550903260707855,
-0.002740083262324333,
-0.07598569989204407,
0.0061775860376656055,
0.04920520633459091,
-0.002551779616624117,
0.12103813141584396,
0.010031473822891712,
-0.019269902259111404,
-0.11930835992097855,
0.03442227467894554,
-0.04968240484595299,
0.08151324838399887,
0.03470195457339287,
-0.07118066400289536,
-0.07865171134471893,
-0.04021531343460083,
0.06538860499858856,
-0.07408659905195236,
0.042812153697013855,
-0.09853814542293549,
-0.035138290375471115,
-0.09342049807310104,
0.09479568898677826,
0.01220257394015789,
-0.008345352485775948,
-0.0234498493373394,
0.09106694906949997,
0.020565859973430634,
0.07186173647642136,
0.024284010753035545,
-0.054633621126413345,
0.02320735529065132,
0.0620695985853672,
-0.051098164170980453,
0.10608988255262375,
0.00832104217261076,
-0.06607329100370407,
0.08844558894634247,
-0.07177224010229111,
-0.08470531553030014,
0.04247051477432251,
-0.0669495090842247,
-0.01953842118382454,
0.11110822856426239,
-0.09809473901987076,
0.06461246311664581,
-0.00425513181835413,
-0.048815250396728516,
0.027115795761346817,
-0.08478645235300064,
0.06257952749729156,
0.017039617523550987,
0.01189069077372551,
-0.044808488339185715,
0.07371369004249573,
0.11252928525209427,
-0.01427608635276556,
-0.06178636476397514,
-0.046643249690532684,
-0.07889096438884735,
-0.013970619067549706,
-0.05597628653049469,
-0.10366726666688919,
0.10054866969585419,
0.10509736090898514,
-0.010532427579164505,
-0.03252347186207771,
-0.03673186153173447,
-0.08550480753183365,
0.038120124489068985,
-0.07319182902574539,
0.036796584725379944,
-0.03327709436416626,
-0.027055012062191963,
-0.006535827647894621,
0.05860808491706848,
0.04182702675461769,
0.002465057885274291,
0.028201116248965263,
0.022398928180336952,
0.04980408400297165,
0.058961380273103714,
-0.05177390202879906,
0.017736250534653664,
0.049573637545108795,
-0.04553873464465141,
0.05232980102300644,
-0.08706818521022797,
0.03286546841263771,
0.063511423766613,
-0.03440370783209801,
-0.07685010135173798,
-0.025838488712906837,
-0.10604343563318253,
-0.08430531620979309,
0.09196624904870987,
0.011571106500923634,
-0.05825518071651459,
-0.08472509682178497,
-0.01813453994691372,
-0.06272558122873306,
0.011590714566409588,
-0.08162474632263184,
-0.11144375056028366,
0.12238901853561401,
0.07683885097503662,
-0.01781400479376316,
0.0066218143329024315,
0.055051252245903015,
-0.07165466994047165,
-0.07309241592884064,
-0.019174737855792046,
-0.000943792867474258,
-0.08963803201913834,
-0.09971979260444641,
0.029090769588947296,
0.04612189158797264,
-0.05462539568543434,
-0.10513870418071747,
0.08362133800983429,
-0.03257026523351669,
-0.05660029128193855,
-0.05905637517571449,
-0.012082246132194996,
0.08292555809020996,
0.07739777863025665,
-0.010111279785633087,
0.0567951574921608,
0.07402554154396057,
-0.02229471504688263,
-0.051362451165914536,
0.016308369114995003,
-0.054379407316446304,
-0.07148412615060806,
-0.08706355839967728,
-0.0340736024081707,
0.04250657930970192,
0.00413114856928587,
0.018850581720471382,
-0.07984959334135056,
-0.043574728071689606,
-0.10708864033222198,
0.1041664108633995,
0.07848682254552841,
0.07309707999229431,
0.09463229775428772,
0.018935060128569603,
-0.09376715868711472,
-0.04351429268717766,
-0.06549201905727386,
-0.11777866631746292,
-0.01500261016190052,
-0.09705432504415512,
0.0212324857711792,
-0.09827209264039993,
0.060842450708150864,
0.0885394737124443,
0.0073020001873373985,
0.0526331402361393,
0.06887266784906387,
0.01890532299876213,
0.005144789349287748,
0.08349059522151947,
0.04258823022246361,
-0.05364590510725975,
0.021982531994581223,
-0.02465890347957611,
0.0021403594873845577,
-0.00325430347584188,
-0.02073909528553486,
0.055710628628730774,
-0.03597167134284973,
-0.015959106385707855,
-0.09178278595209122,
-0.08762954920530319,
-0.09779127687215805,
0.01801086775958538,
0.05640362575650215,
0.004969258327037096,
0.027610357850790024,
-0.004666104447096586,
0.029332127422094345,
-0.005193493794649839,
-0.011446953751146793,
0.0051325056701898575,
0.020524896681308746,
0.022908134385943413,
0.10671366751194,
0.0655018538236618,
0.06617559492588043,
-0.04049438238143921,
-0.020021840929985046,
-0.003109900513663888,
0.09174250811338425,
0.028441568836569786,
-0.044155582785606384,
0.0594853013753891,
0.03455278277397156,
-0.05973613262176514,
0.08124567568302155,
-0.09713898599147797,
0.03813963755965233,
0.02637765370309353,
-0.08267523348331451,
-0.008531195111572742,
-0.09778539091348648,
-0.04495064169168472,
0.01663929596543312,
0.112423837184906,
-0.08183438330888748,
-0.10124845802783966,
-0.11216112226247787,
-0.07746855169534683,
-0.08291343599557877,
0.09795231372117996,
-0.09535139054059982,
-0.09624674916267395,
0.003955876920372248,
-0.027782317250967026,
0.06382100284099579,
0.010907533578574657,
0.046750590205192566,
-0.06077057495713234,
-0.08520545810461044,
-0.04133282229304314,
-0.10559354722499847,
-0.10710371285676956,
0.020312480628490448,
0.09555674344301224,
0.06728952378034592,
0.009418210946023464,
-0.0606633685529232,
0.06094304844737053,
-0.03129013627767563,
-0.06828818470239639,
0.025257069617509842,
-0.04410167410969734,
-0.0433407761156559,
0.009303984232246876,
0.1149425283074379,
0.04771063104271889,
-0.12151877582073212,
-0.03342893347144127,
0.07403131574392319,
-0.10095040500164032,
0.06967189908027649,
0.03390264883637428,
-0.03400074690580368,
0.008269768208265305,
0.007064328994601965,
0.05147845298051834,
-0.0051563517190515995,
0.016429923474788666,
-0.07459504157304764,
0.1129380539059639,
0.019046613946557045,
-0.053644776344299316,
0.05743465572595596,
-0.08694104850292206,
-0.047951895743608475,
-0.03419101610779762,
0.04555517062544823,
0.030597331002354622,
0.0028234836645424366,
0.10036706179380417,
-0.0929151251912117,
0.07303588092327118,
-0.07199597358703613,
-0.06484924256801605,
-0.050821155309677124,
-0.0565638542175293,
0.017028719186782837,
0.11525203287601471,
-0.0013057588366791606,
-0.019798709079623222,
0.06824971735477448,
-0.07673859596252441,
0.1082485243678093,
0.08934316039085388,
-0.08974727988243103,
0.10561208426952362,
0.05587640032172203,
-0.06880182772874832,
0.0020577488467097282,
0.08429250121116638,
-0.0036185726057738066,
0.036392100155353546,
0.11208799481391907,
0.013111804611980915,
0.0036463001742959023,
-0.0953589528799057,
0.09308280795812607,
0.09734448045492172,
-0.00811767391860485,
0.10252160578966141,
-0.014690953306853771,
-0.013121657073497772,
-0.06613375246524811,
-0.09122972935438156,
0.04130245000123978,
0.0662216916680336,
0.049117300659418106,
-0.09734182059764862,
-0.056633301079273224,
-0.05861249193549156,
0.04585210233926773,
0.00017666029452811927,
-0.05337381735444069,
-0.07848097383975983,
-0.09647095203399658,
0.022363297641277313,
-0.10226881504058838,
-0.06331290304660797,
0.007023198530077934,
-0.0090865483507514,
0.10767291486263275,
0.05558476224541664,
-0.03687358647584915,
0.01961895264685154,
-0.059216178953647614,
-0.0736299529671669,
0.0037452569231390953,
0.07514337450265884,
-0.09168463945388794,
0.11046871542930603,
-0.08635513484477997,
0.040413737297058105,
0.03306279703974724,
0.045322857797145844,
-0.0469772033393383,
0.059604961425065994,
-0.05282064899802208,
0.01842493563890457,
0.10038316994905472,
-0.08181624859571457,
-0.10098768025636673,
-0.08513914048671722,
0.06097853556275368,
-0.07209930568933487,
-0.03450123965740204,
0.0790478065609932,
-0.010146166197955608,
0.016163496300578117,
-0.08061017841100693,
0.08796056360006332,
0.05887048691511154,
0.020049452781677246,
-0.03689844533801079,
0.07966453582048416,
0.07235170900821686,
-0.10904115438461304,
-0.023930873721837997,
0.019889459013938904,
0.09597525000572205,
0.006774085573852062,
0.07997599244117737,
-0.04902908205986023,
-0.07817477732896805,
-0.06023898348212242,
0.051648661494255066,
0.03079788014292717,
-0.11048546433448792,
-0.10798367857933044,
-0.03113464266061783,
0.07985571026802063,
-0.03841311112046242,
-0.0959986001253128,
-0.06810829043388367,
-0.036786023527383804,
0.07251798361539841,
0.08522682636976242,
-0.08673615008592606,
0.05043962970376015,
0.01464768499135971,
-0.08268412947654724,
-0.008888044394552708,
-0.005551179405301809,
-0.02184608206152916,
-0.10788560658693314,
0.06539735943078995,
-0.03747224062681198,
-0.009883267804980278,
0.04477443918585777,
-0.07730546593666077,
0.04534671828150749,
-0.07858234643936157,
0.08290214836597443,
-0.020838802680373192,
-0.05245088413357735,
0.07768242061138153,
0.07124592363834381,
-0.10465841740369797,
0.10233163833618164,
0.029995093122124672,
0.08427918702363968,
0.04751615971326828,
0.10164535790681839,
0.06338683515787125,
0.09541213512420654,
-0.01406275574117899,
-0.03764042258262634,
-0.035577207803726196,
0.01947273313999176,
0.041739918291568756,
0.011231462471187115,
-0.03169463574886322,
-0.014889372512698174,
0.03741578385233879,
0.09654445201158524,
-0.11011189967393875,
-0.09699705243110657,
0.10416559875011444,
0.025758931413292885,
0.02642030268907547,
-0.04261087626218796,
0.039395395666360855,
0.0025555642787367105,
0.09739711135625839,
0.10227154195308685,
0.07063774019479752,
-0.09937986731529236,
0.07195796072483063,
-0.0915088877081871,
-0.09194628149271011,
-0.09716347604990005,
-0.018502995371818542,
-0.04861300811171532,
0.09127561002969742,
-0.0500904843211174,
0.06525218486785889,
0.08697706460952759,
-0.03438006713986397,
0.025359496474266052,
-0.044418781995773315,
0.012378952465951443,
-0.06016279384493828,
-0.09193868935108185,
0.0875927284359932,
-0.08620189875364304,
-0.01130694430321455,
0.034022871404886246,
0.09993961453437805,
0.05422087386250496,
-0.02348678559064865,
0.04283226653933525,
0.044878143817186356,
0.10843821614980698,
0.06845755130052567,
0.09475145488977432,
-0.020436905324459076,
-0.10302748531103134,
0.04280827194452286,
0.03195592015981674,
0.0011989615159109235,
-0.039393216371536255,
0.033556073904037476,
0.023724418133497238,
-0.05602923035621643,
0.0941006988286972,
0.015789465978741646,
-0.004385222215205431,
-0.017105666920542717,
0.022895341739058495,
0.03813106566667557,
0.10466810315847397,
0.06803476810455322,
-0.08846527338027954,
-0.11189328879117966,
-0.04449490085244179,
0.10587934404611588,
-0.016658222302794456,
-0.08988958597183228,
0.0038506961427628994,
-0.05720682814717293,
-0.064368836581707,
-0.11026165634393692,
0.10668319463729858,
0.07721588015556335,
-0.08529298007488251,
0.0903521478176117,
0.015601471066474915,
0.04773438349366188,
-0.0004970806185156107,
0.05222632363438606,
-0.0007220988045446575,
0.10476726293563843,
0.08156696707010269,
-0.08913381397724152,
0.12974078953266144,
0.09040151536464691,
0.10198061913251877,
-0.004187692888081074,
0.07314803451299667,
-0.10084734112024307,
0.035734646022319794,
-0.08154351264238358,
-0.006062949076294899,
-0.01689811982214451,
0.012096290476620197,
0.00174476217944175,
0.007391676772385836,
-0.08236967772245407,
-0.03873361274600029,
-0.04355159401893616,
-0.10979640483856201,
0.0080729303881526,
-0.1077413409948349,
-0.07193230837583542,
-0.07171010971069336,
0.027864251285791397,
-0.021856024861335754,
-0.09491420537233353,
0.08795115351676941,
-0.09341271221637726,
0.10365786403417587,
0.014366185292601585,
-0.09460604935884476,
-0.06452812254428864,
-0.04168850928544998,
0.029171181842684746,
0.10093940049409866,
0.06380203366279602,
0.03639589995145798,
0.09919179230928421,
0.10510241240262985,
-0.05539112910628319,
0.02136000245809555,
-0.026552094146609306,
0.038846950978040695,
0.06146817281842232,
0.043702978640794754,
0.057285014539957047,
0.07617764174938202,
-0.0017706799553707242,
-0.08844231814146042,
-0.0322590172290802,
-0.10098328441381454,
0.026032455265522003,
0.0958855077624321,
0.055858250707387924,
-0.06373151391744614,
0.0069257342256605625,
-0.02724049612879753,
0.0074988193809986115,
0.023740272969007492,
-0.03887986019253731,
0.05958342179656029,
-0.0020430239383131266,
-0.024719342589378357,
-0.10051235556602478,
0.08655816316604614,
-0.04822695255279541,
0.023566368967294693,
0.05892357602715492,
0.0017940611578524113,
0.019397642463445663,
-0.07600928097963333,
-0.10081765055656433,
-0.00858643651008606,
0.061447132378816605,
-0.010036836378276348,
0.05582199990749359,
0.10318654775619507,
-0.024942439049482346,
0.04158087447285652,
-0.10880373418331146,
-0.046004217118024826,
-0.05953121557831764,
-0.08611498773097992,
0.05242873355746269,
-0.10856218636035919,
-0.05777255818247795,
-0.05190550163388252,
-0.043568652123212814,
-0.04073147848248482,
-0.08102531731128693,
-0.018586652353405952,
-0.040895164012908936,
-0.0651002898812294,
0.018998034298419952,
-0.05258697643876076,
-0.048201028257608414,
-0.07282105088233948,
-0.05350406840443611,
0.03497481346130371,
-0.09544648975133896,
0.07794024050235748,
-0.07888606190681458,
0.029020169749855995,
-0.10691910982131958,
-0.09150613844394684,
0.000985821825452149,
-0.07013507187366486,
-0.08670677244663239,
0.04601813107728958,
-0.0894530713558197,
0.09235913306474686,
0.0076115913689136505,
-0.06537911295890808,
0.11374178528785706,
0.10605950653553009,
0.03885023668408394,
0.10375270992517471,
0.022610194981098175,
-0.06575042009353638,
0.047258563339710236,
0.010394208133220673,
0.02024839259684086,
-0.023952636867761612,
-0.09982923418283463,
-0.09503746032714844,
-0.07886891067028046,
0.05495113506913185,
-0.032191816717386246,
0.10567852854728699,
-0.03620012849569321,
0.08954653143882751,
-0.10196729749441147,
-0.06592153757810593,
0.0356711819767952,
-0.03753874823451042,
0.07322832942008972,
-0.03745439648628235,
0.06890175491571426,
0.10170771181583405,
-0.02802600897848606,
0.034715257585048676,
-0.01511803362518549,
0.012226325459778309,
0.08185745775699615,
0.11377665400505066,
0.028718313202261925,
-0.07383474707603455,
-0.06071570888161659,
-0.10736770182847977,
0.05810626596212387,
0.10761243849992752,
-0.05111025273799896,
-0.10368629544973373,
0.0626419261097908,
0.03665246069431305,
0.021366775035858154,
0.11245308071374893,
0.08185837417840958,
0.06350741535425186,
-0.0704026147723198,
-0.04657035320997238,
-0.0468284897506237,
-0.04976620525121689,
-0.07937733083963394,
-0.0018861681455746293,
-0.06805340945720673,
-0.03710870444774628,
0.029717417433857918,
-0.02723229117691517,
-0.037639256566762924,
0.0655922070145607,
0.010438846424221992,
0.014146236702799797,
0.07655896246433258,
0.013511116616427898,
0.024295277893543243,
0.07310494780540466,
0.03813108056783676,
-0.020769191905856133,
0.03768986463546753,
0.07677175849676132,
-0.07083117961883545,
-0.024675214663147926,
-0.03417050838470459,
-0.0747755840420723,
-0.04513349384069443,
-0.06991160660982132,
-0.081625796854496,
0.038869958370923996,
0.07524656504392624,
-0.056169066578149796,
-0.050012923777103424,
0.02043924108147621,
-0.05589648708701134,
-0.023607533425092697,
-0.0437249056994915,
-0.06044216826558113,
-0.07552899420261383,
-0.08095815032720566,
-0.0022780238650739193,
0.039924200624227524,
0.061100635677576065,
0.10210629552602768,
-0.07532443106174469,
0.09979600459337234,
-0.035324208438396454,
0.014291442930698395,
0.10501004010438919,
-0.05115713179111481,
-0.05297193303704262,
-0.08750949800014496,
0.010878613218665123,
-0.032089345157146454,
0.024926187470555305,
0.019322650507092476,
0.08093790709972382,
0.010076566599309444,
-0.02080501802265644,
0.08347147703170776,
-0.09570329636335373,
0.03583740442991257,
-0.03488967567682266,
-0.037955526262521744,
0.07307086139917374,
-0.038732513785362244,
-0.1139334887266159,
0.0016423329943791032,
0.09909606724977493,
-0.08778756111860275,
-0.012697854079306126,
-0.08287274837493896,
-0.08475099503993988,
0.040119145065546036,
0.04231657460331917,
0.01200058776885271,
0.00700847152620554,
-0.06613127142190933,
-0.10434526205062866,
0.08763740956783295,
-0.10217374563217163,
-0.017957132309675217,
0.11953958868980408,
-0.08476713299751282,
0.07835481315851212,
-0.0883675068616867,
-0.07337965816259384,
-0.002859264612197876,
-0.027370844036340714,
0.06428119540214539,
0.10826098173856735,
-0.09427564591169357,
-0.04895656928420067,
0.04126783087849617,
-0.08773130178451538,
-0.0874527245759964,
0.06960665434598923,
0.06162789836525917,
0.029596416279673576,
0.06323002278804779,
0.020045863464474678,
-0.09334389120340347,
-0.07540226727724075,
-0.10632134974002838,
-0.09799175709486008,
-0.03339251130819321,
0.07079370319843292,
0.0028913409914821386,
-0.10629821568727493,
0.040815066546201706,
-0.0015087920473888516,
-0.07158198952674866,
-0.07547785341739655,
0.014048056676983833,
-0.06373780965805054,
-0.06940764933824539,
0.04674096032977104,
-0.0576917938888073,
0.06449886411428452,
0.0032517064828425646,
-0.08704016357660294,
-0.01072368398308754,
0.09443354606628418,
0.07000403106212616,
-0.027271708473563194,
-0.03239958733320236,
-0.035109955817461014,
-0.03154267370700836,
-0.005292286165058613,
-0.05628272518515587,
0.018375495448708534,
0.10006359964609146,
-0.028455406427383423,
0.06712052971124649,
0.09479176998138428,
0.058306414633989334,
-0.03139872848987579,
0.02217305265367031,
-0.06905567646026611,
-0.06525028496980667,
-0.049316730350255966,
-0.040836937725543976,
0.03987237438559532,
0.10040979087352753,
0.1195012554526329,
-0.06615935266017914,
0.02375439926981926,
0.037818364799022675,
0.10647312551736832,
-0.11644301563501358,
-0.023478668183088303,
0.03627489507198334,
-0.04651137441396713,
-0.02469746209681034,
-0.10095513612031937,
0.009283581748604774,
0.016450516879558563,
0.0019014595309272408,
-0.012838528491556644,
0.09145250171422958,
-0.047324344515800476,
0.006427932530641556,
0.035066649317741394,
0.10444337874650955,
0.05933251231908798,
0.07425098866224289,
0.009842269122600555,
0.015344892628490925,
-0.08171305060386658,
0.08039776235818863,
0.04222891479730606,
0.05059703066945076,
0.09208561480045319,
-0.10271285474300385,
-0.06006436422467232,
-0.08874955773353577,
0.05617361515760422,
-0.08869785815477371,
-0.018032938241958618,
0.04264429211616516,
0.08406244963407516,
0.0938372015953064,
-0.07784326374530792,
0.0194869227707386,
-0.03734007477760315,
-0.05495275929570198,
0.029808230698108673,
0.08837565779685974,
-0.06862299889326096,
-0.06961648166179657,
-0.03284263610839844,
-0.061177290976047516,
0.03572782874107361,
-0.04042787477374077,
-0.03058609552681446,
0.03103897161781788,
0.07174824923276901,
-0.03576367348432541,
0.021921047940850258,
-0.04120001941919327,
-0.055573321878910065,
-0.015114950016140938,
0.03681395202875137,
-0.08520181477069855,
-0.032850224524736404,
0.109486885368824,
-0.059606198221445084,
0.09744502604007721,
0.019577810540795326,
0.017809569835662842,
0.04340425506234169,
-0.051074955612421036,
0.017613502219319344,
-0.04611707106232643,
0.0044089555740356445,
-0.11273442208766937,
0.024696264415979385,
-0.07317861169576645,
-0.037906259298324585,
-0.059893060475587845,
0.058136261999607086,
-0.06703491508960724,
0.047915954142808914,
-0.11022523045539856,
0.05571701377630234,
-0.007574878167361021,
-0.06974700838327408,
0.014548559673130512,
-0.09559200704097748,
0.007016816642135382,
0.06008043885231018,
-0.0024280028883367777,
0.09715758264064789,
0.03789203241467476,
-0.025539686903357506,
0.03913017362356186,
0.0844329446554184,
0.031000318005681038,
0.07031618058681488,
0.036056771874427795,
-0.04023298993706703,
0.07851127535104752,
0.004321795888245106,
0.08093677461147308,
-0.041882194578647614,
0.10187513381242752,
0.05264677107334137,
0.03606227785348892,
0.02374405413866043,
0.05917906016111374,
-0.08868899941444397,
0.08593302965164185,
-0.03542572259902954,
-0.024566570296883583,
-0.08943864703178406,
-0.057311322540044785,
-0.017581695690751076,
-0.0947958305478096,
-0.1048719510436058,
-0.08183109015226364,
-0.1103539764881134,
0.03728441894054413,
0.017617134377360344,
0.0819563940167427,
-0.015218828804790974,
-0.020089056342840195,
-0.05403013154864311,
-0.10740281641483307,
-0.08040177077054977,
0.08016392588615417,
-0.08491601794958115,
-0.07332394272089005,
0.059293556958436966,
-0.07592956721782684,
0.08887314796447754,
0.006419011857360601,
-0.11467113345861435,
-0.09488867968320847,
-0.05925268679857254,
-0.04602812975645065,
-0.029287854209542274,
0.0424625463783741,
-0.10758426040410995,
-0.009890411049127579,
0.0831025093793869,
0.04869920760393143,
-0.022398002445697784,
-0.007652136497199535,
-0.04861507564783096,
0.08916222304105759,
0.07880227267742157,
0.033322934061288834,
0.0798322781920433,
-0.05725155398249626,
-0.01851383037865162,
-0.056730158627033234,
-0.01659100502729416,
-0.05952194333076477,
0.10673785209655762,
0.07897699624300003,
0.08304900676012039,
0.0882972851395607,
0.11365175992250443,
0.03594188764691353,
-0.09849013388156891,
0.0019956137984991074,
0.10463833808898926,
0.04719121754169464,
0.025352073833346367,
0.07798206806182861,
0.016826331615447998,
-0.04583602398633957,
-0.006130813620984554,
-0.029357479885220528,
0.06471402198076248,
0.018895689398050308,
0.002074762247502804,
-0.0903400257229805,
0.053585976362228394,
0.0752544179558754,
-0.04406311362981796,
-0.04403277486562729,
-0.04550928622484207,
-0.11311125010251999,
0.01661032624542713,
-0.04340773820877075,
0.017504431307315826,
-0.04853251203894615,
0.0055350204929709435,
0.04459318518638611,
0.1063353419303894,
0.013796727173030376,
-0.08703991025686264,
-0.10135455429553986,
0.05080350488424301,
0.07189317792654037,
-0.06228472292423248,
0.03305660933256149,
0.010236751288175583,
-0.01613806001842022,
0.02754627913236618,
0.004025441128760576,
-0.02682308852672577,
0.08380535244941711,
0.047189030796289444,
-0.06445141136646271,
-0.050363022834062576,
0.10625221580266953,
0.019520333036780357,
-0.008123714476823807,
-0.06770782172679901,
-0.07268170267343521,
-0.06522007286548615,
-0.11098726838827133,
-0.015706779435276985,
0.03951026499271393,
-0.032814305275678635,
0.01848016306757927,
0.07802631705999374,
-0.03021620586514473,
0.002452204003930092,
-0.08404842019081116,
0.0922321081161499,
-0.003393151331692934,
-0.10559897124767303,
-0.09516191482543945,
-0.012179240584373474,
-0.04084707424044609,
-0.018074313178658485,
0.023980779573321342,
0.005919103976339102,
-0.09596987068653107,
0.02780841290950775,
0.048773664981126785,
0.05050618574023247,
0.06703923642635345,
-0.00834357924759388,
0.05109143257141113,
-0.11651211977005005,
-0.034586042165756226,
-0.061483003199100494,
0.018525153398513794,
-0.06076868250966072,
0.06885707378387451,
-0.01918725296854973,
-0.10995891690254211,
0.0862341895699501,
-0.11211400479078293,
-0.09062661975622177,
-0.008927269838750362,
0.03684370592236519,
-0.017378350719809532,
-0.07390981167554855,
-0.01117683295160532,
-0.0006241817027330399,
0.06536967307329178,
0.09339381754398346,
-0.03917616233229637,
0.07867449522018433,
0.0897480919957161,
0.05130666121840477,
-0.09956873953342438,
0.08689561486244202,
0.021323848515748978,
0.08048246800899506,
0.04359043017029762,
0.035469237715005875,
-0.03582938015460968,
-0.06137314811348915,
0.07503627985715866,
0.04560984671115875,
-0.10248617082834244,
-0.09629368782043457,
0.05681106448173523,
-0.06942746043205261,
0.10343039035797119,
-0.014268462546169758,
-0.015128626488149166,
-0.04865662008523941,
-0.09250462800264359,
0.04006431996822357,
0.0036997466813772917,
0.0890265703201294,
-0.05140814557671547,
0.013540641404688358,
0.005916215479373932,
0.021966511383652687,
-0.09001253545284271,
-0.058491162955760956,
-0.10191445797681808,
-0.056856896728277206,
0.02264104038476944,
0.02702549286186695,
-0.10006323456764221,
-0.09141600131988525,
-0.0854867547750473,
-0.06879707425832748,
-0.03810116648674011,
-0.09750650823116302,
0.07664133608341217,
-0.03552212566137314,
-0.08918338268995285,
-0.04963066801428795,
0.05690951272845268,
0.039001163095235825,
0.09700469672679901,
-0.026529738679528236,
-0.09607167541980743,
-0.05734991282224655,
0.02015029639005661,
-0.06734663993120193,
0.05400107428431511,
-0.05624593421816826,
-0.06386111676692963,
0.03404717519879341,
-0.02923470549285412,
-0.04007285088300705,
-0.01160726323723793,
-0.032243791967630386,
-0.04633105918765068,
0.00605216808617115,
-0.09439599514007568,
0.06855298578739166,
-0.05921535938978195,
0.022651948034763336,
0.0963519737124443,
-0.006888104602694511,
-0.03959793969988823,
0.020776117220520973,
-0.10587293654680252,
-0.0016923430375754833,
0.06016813963651657,
0.056784819811582565,
-0.09718246757984161,
0.10587776452302933,
-0.017809798941016197,
-0.10205335170030594,
-0.07388180494308472,
0.07914692163467407,
-0.047014132142066956,
-0.010544630698859692,
0.07921630144119263,
0.005462689325213432,
0.06502535194158554,
0.054329730570316315,
0.10530903190374374,
0.10284190624952316,
0.08921342343091965,
-0.029499148949980736,
0.10445500910282135,
-0.033597927540540695,
-0.08330892026424408,
-0.0111347371712327,
0.022757889702916145,
0.07696357369422913,
-0.05733797699213028,
0.06236712634563446,
0.04364892467856407,
-0.01720166765153408,
0.011593306437134743,
0.11278842389583588,
0.06524646282196045,
-0.0027657970786094666,
0.054546378552913666,
0.04874192550778389,
-0.08360003679990768,
0.08097701519727707,
-0.09823136776685715,
0.03679069131612778,
0.013085254468023777,
-0.007139517925679684,
0.040941569954156876,
-0.061850327998399734,
-0.01388877909630537,
-0.005897607188671827,
0.014346088282763958,
-0.06999266892671585,
-0.08554050326347351,
0.000838427513372153,
-0.08047278970479965,
-0.026316557079553604,
0.08708448708057404,
0.06609044224023819,
0.07039200514554977,
-0.08356734365224838,
0.05449141561985016,
-0.006388224195688963,
0.10715121775865555,
-0.05761702358722687,
-0.07511559873819351,
0.04605433717370033,
-0.1156967356801033,
-0.06568214297294617,
0.08163072913885117,
0.11476603150367737,
-0.02293708175420761,
0.07150914520025253,
-0.06070585176348686,
-0.09661202877759933,
-0.08850336819887161,
-0.08857041597366333,
-0.08661438524723053,
0.0038348822854459286,
0.011182253248989582,
0.011311010457575321,
0.004144828300923109,
0.0409984216094017,
-0.02055532857775688,
-0.021204767748713493,
0.06478596478700638,
0.05390866845846176,
-0.09976506978273392,
-0.050670940428972244,
-0.03378020599484444,
0.03477909043431282,
0.11649703234434128,
-0.026173550635576248,
0.05817116051912308,
-0.04433675482869148,
-0.014758482575416565,
0.051577504724264145,
-0.053185153752565384,
-0.11252052336931229,
0.09790582954883575,
0.0672190710902214,
-0.07698379456996918,
-0.06554059684276581,
-0.02917313389480114,
-0.05405786633491516,
0.03834787756204605,
-0.08696198463439941,
-0.06972299516201019,
0.06633230298757553,
-0.05858699604868889,
0.09595383703708649,
-0.0317123644053936,
0.10262427479028702,
0.06901352107524872,
0.028107959777116776,
-0.010328986681997776,
-0.09815719723701477,
0.05204199627041817,
-0.09138805419206619,
0.02204131707549095,
0.05512522533535957,
-0.06614682078361511,
0.043869052082300186,
0.07117794454097748,
0.02187897264957428,
-0.10041699558496475,
0.07102403789758682,
0.014466679655015469,
-0.07310652732849121,
-0.05032447725534439,
0.03000977262854576,
-0.06002996116876602,
-0.09087634086608887,
-0.03626067563891411,
-0.02145683951675892,
-0.02807750180363655,
0.09779617935419083,
0.10320451110601425,
0.02898622862994671,
-0.03733302280306816,
-0.07675482332706451,
0.10075393319129944,
-0.03013337403535843,
-0.07415012270212173,
-0.006681894417852163,
0.0794602781534195,
0.06272684037685394,
-0.02874213084578514,
0.01251453161239624,
0.09372325241565704,
-0.03745320066809654,
-0.018526460975408554,
0.06342858821153641,
0.015070720575749874,
0.022207632660865784,
-0.0020993645302951336,
0.07539737224578857,
-0.07271704822778702,
-0.021297764033079147,
0.03129382058978081,
0.08337847143411636,
0.11057043820619583,
0.036566201597452164,
0.10949824005365372,
0.10832466185092926,
-0.10881148278713226,
0.09409940987825394,
-0.06202834099531174,
0.07854023575782776,
0.08700013905763626,
0.05683165788650513,
0.062407009303569794,
0.04867188632488251,
0.10312897711992264,
-0.07019020617008209,
0.09999433159828186,
0.08632807433605194,
0.04751283675432205,
-0.02569265104830265,
0.09280666708946228,
-0.10680021345615387,
0.0692172572016716,
-0.034414779394865036,
0.057280439883470535,
-0.03314518183469772,
-0.04987756535410881,
-0.02540639601647854,
0.0689610168337822,
0.035855598747730255,
-0.018491193652153015,
0.05136410519480705,
0.08158203214406967,
-0.03360690176486969,
0.035617414861917496,
0.11174484342336655,
0.049772534519433975,
0.022750379517674446,
-0.07025890797376633,
0.00946840550750494,
-0.07525712251663208,
-0.023545069620013237,
-0.05692165717482567,
-0.015933912247419357,
-0.10064602643251419,
0.014832856133580208,
0.029401270672678947,
-0.07793892920017242,
-0.08258663862943649,
0.07562586665153503,
-0.05524733290076256,
0.08497045934200287,
-0.0244413111358881,
0.07099391520023346,
-0.06943615525960922,
0.002334549557417631,
0.08321819454431534,
-0.11831006407737732,
0.07463277876377106,
-0.07130862772464752,
-0.006553399842232466,
-0.04741190746426582,
-0.06043028086423874,
-0.07579471170902252,
0.11632511764764786,
-0.09584967792034149,
0.049925994127988815,
-0.020663782954216003,
0.09943005442619324,
-0.02297651581466198,
-0.05900688096880913,
-0.07622640579938889,
0.08891025185585022,
0.046728797256946564,
-0.04933245852589607,
0.04597936570644379,
-0.05578688159584999,
0.04865565150976181,
0.08854130655527115,
0.012147116474807262,
0.044077999889850616,
0.03150925412774086,
0.03866483271121979,
-0.0702684298157692,
0.033217474818229675,
0.0785660445690155,
0.06822257488965988,
-0.09284966439008713,
-0.05466681346297264,
0.10925894975662231,
0.0034319735132157803,
0.0017271732212975621,
-0.017108893021941185,
-0.012764542363584042,
0.051403142511844635,
-0.049038201570510864,
0.036446839570999146,
0.12225320935249329,
0.024607526138424873,
-0.014285054989159107,
0.03507211059331894,
0.0999017059803009,
-0.07411372661590576,
-0.0018831392517313361,
-0.08853190392255783,
-0.013164815492928028,
-0.0964467003941536,
0.09103650599718094,
-0.08708088099956512,
-0.09003458172082901,
-0.02893775887787342,
-0.09101670980453491,
0.050790123641490936,
-0.024970583617687225,
0.0020461902022361755,
0.10293807089328766,
0.005880727898329496,
-0.04002108424901962,
0.08753489702939987,
0.01689116470515728,
-0.051027342677116394,
-0.054691072553396225,
-0.000622105784714222,
0.09807030111551285,
-0.09621957689523697,
0.060022689402103424,
-0.01510627195239067,
0.03893353044986725,
0.09649002552032471,
0.08718079328536987,
0.09191954880952835,
0.04780777916312218,
0.08474116027355194,
-0.08045809715986252,
0.028229935094714165,
-0.04463141784071922,
-0.023680249229073524,
0.08412077277898788,
0.011325771920382977,
-0.0541762039065361,
-0.07464636117219925,
0.10686495155096054,
-0.04052874818444252,
-0.06917601078748703,
-0.0146022392436862,
-0.08350684493780136,
0.09067730605602264,
0.027491340413689613,
0.10271500051021576,
0.03307795897126198,
-0.07115025818347931,
0.038809482008218765,
-0.07084919512271881,
0.05962634086608887,
-0.0030385972931981087,
-0.033156562596559525,
-0.024844791740179062,
-0.046428829431533813,
0.030938558280467987,
-0.01599908620119095,
-0.00666440324857831,
-0.09943467378616333,
-0.03498300537467003,
0.03235155716538429,
-0.10237234830856323,
-0.02671591378748417,
0.022030223160982132,
0.11031170189380646,
-0.08686358481645584,
-0.019932188093662262,
0.016694260761141777,
0.05442073568701744,
0.009045572020113468,
0.016036374494433403,
0.09698005765676498,
0.04474903270602226,
0.02706792578101158,
-0.08514131605625153,
-0.04533291235566139,
0.029767649248242378,
-0.016092846170067787,
0.061130743473768234,
-0.039699602872133255,
-0.09138162434101105,
0.003814132884144783,
0.030099228024482727,
-0.053850386291742325,
0.06992083787918091,
-0.014417408034205437,
-0.045381154865026474,
0.05598636716604233,
-0.03033505193889141,
-0.08047636598348618,
0.03214429318904877,
0.02483556419610977,
0.10427198559045792,
0.09813883155584335,
0.07003789395093918,
-0.011731368489563465,
-0.02044106088578701,
0.09649650007486343,
0.0800531804561615,
-0.058907609432935715,
-0.008362586610019207,
-0.018128683790564537,
0.0262594036757946,
0.059358902275562286,
-0.06724995374679565,
-0.006314107682555914,
0.05437203869223595,
-0.042970746755599976,
-0.06963081657886505,
0.04610825702548027,
0.06325747817754745,
-0.08052977919578552,
-0.07711146026849747,
-0.054343532770872116,
0.09983624517917633,
0.07303486764431,
-0.04220366105437279,
-0.04828191176056862,
-0.07310768216848373,
-0.11012978851795197,
-0.11689334362745285,
-0.04574860259890556,
-0.08130419254302979,
-0.036072880029678345,
-0.08190487325191498,
0.010911519639194012,
0.08649719506502151,
-0.11380454897880554,
-0.07450754940509796,
0.018213290721178055,
-0.09751161932945251,
0.03308888524770737,
0.011974776163697243,
0.03687301278114319,
0.010400851257145405,
-0.0621856153011322,
0.09173475205898285,
-0.10397972166538239,
0.07778757065534592,
-0.02659755013883114,
0.061502620577812195,
0.08111348003149033,
-0.006420535501092672,
0.09916244447231293,
-0.07125800848007202,
0.026430336758494377,
-0.10072161257266998,
0.08328723162412643,
0.06573481112718582,
0.06986545771360397,
0.05506099388003349,
-0.07689027488231659,
0.03856976702809334,
0.0362316370010376,
0.02414044179022312,
-0.032281212508678436,
0.0536133274435997,
-0.11593443900346756,
-0.08274968713521957,
-0.0895126685500145,
-0.0005276004667393863,
0.02313721925020218,
0.10497897118330002,
-0.04402659460902214,
-0.11027537286281586,
0.10313250869512558,
-0.04256829991936684,
0.048990704119205475,
0.05651475489139557,
-0.06844437122344971,
0.04720292240381241,
-0.012451703660190105,
-0.025164920836687088,
-0.07442966848611832,
-0.012030054815113544,
0.05951788276433945,
0.07300049066543579,
0.08544041216373444,
0.07776466757059097,
0.08667959272861481,
-0.037895966321229935,
-0.06440525501966476,
-0.05742036923766136,
-0.07824881374835968,
0.012073718942701817,
0.09366987645626068,
0.06697167456150055,
0.020270900800824165,
-0.04685402289032936,
-0.013804090209305286,
-0.017739061266183853,
0.008076680824160576,
0.08982034027576447,
-0.07834474742412567,
-0.06389686465263367,
0.0926339402794838,
-0.009614944458007812,
0.0928163230419159,
-0.06457008421421051,
-0.007886362262070179,
-0.054388925433158875,
-0.06266815215349197,
0.10269567370414734,
-0.003415509359911084,
0.10397250950336456,
-0.03734902665019035,
0.021061105653643608,
-0.07899805903434753,
0.010396122001111507,
0.08770456910133362,
0.004073953256011009,
-0.08451997488737106,
0.02827657200396061,
0.0036493849474936724,
-0.057729922235012054,
-0.0440090112388134,
0.0860450267791748,
-0.0855460837483406,
0.06732353568077087,
0.04361841455101967,
-0.005814782809466124,
-0.004565197974443436,
0.061400920152664185,
0.039669543504714966,
0.0545244961977005,
-0.10691944509744644,
-0.03255919739603996,
-0.08381326496601105,
-0.06748063862323761,
0.018802139908075333,
0.11937779933214188,
-0.042542047798633575,
0.09400022774934769,
-0.035843025892972946,
0.002616188256070018,
-0.028669627383351326,
-0.10932554304599762,
-0.0007364737102761865,
-0.012950180098414421,
-0.10070528835058212,
-0.07666891813278198,
0.021665727719664574,
0.036892764270305634,
0.09888001531362534,
-0.10971777886152267,
-0.08557255566120148,
0.013129498809576035,
-0.06371533125638962,
0.1078939139842987,
-0.0335959754884243,
-0.04550522193312645,
0.046483755111694336,
-0.035032715648412704,
0.052656903862953186,
-0.10271512717008591,
0.03293347731232643,
-0.03799505531787872,
-0.07998999208211899,
0.013330772519111633,
-0.08212542533874512,
-0.09846283495426178,
-0.06571023911237717,
-0.019429026171565056,
0.08104663342237473,
0.11384467780590057,
0.03380577266216278,
0.09806933999061584,
-0.10529407858848572,
0.09290821850299835,
0.05959971249103546,
-0.06942550092935562,
-0.011603569611907005,
0.05257895961403847,
0.09336380660533905,
0.1062944307923317,
-0.016483647748827934,
0.06428156793117523,
-0.11058009415864944,
0.07820919156074524,
0.03155069053173065,
0.0008515370427630842,
-0.046987179666757584,
-0.006366807036101818,
-0.07129697501659393,
-0.09881303459405899,
0.0650876984000206,
0.001774311764165759,
0.09958243370056152,
0.06811176985502243,
-0.049667488783597946,
0.054703500121831894,
-0.02651452273130417,
0.039059534668922424,
0.018631305545568466,
-0.06839648634195328,
-0.09928488731384277,
0.04706603288650513,
-0.012869971804320812,
0.02672371082007885,
0.07432667165994644,
-0.11079980432987213,
0.05734933167695999,
-0.03704937919974327,
-0.04329967498779297,
-0.05130181461572647,
0.00544048473238945,
0.0010769607033580542,
0.08237605541944504,
-0.04396352544426918,
-0.03275402635335922,
-0.08446156978607178,
-4.489291677600704e-05,
0.03761446103453636,
0.08194053918123245,
0.1005389392375946,
-0.06457671523094177,
0.005735114682465792,
-0.09011515229940414,
-0.10397352278232574,
0.04290034994482994,
0.09640573710203171,
0.055856578052043915,
0.05902886763215065,
0.008045683614909649,
-0.10942057520151138,
-0.11644314229488373,
-0.06084201857447624,
0.00032468102290295064,
0.019578298553824425,
-0.09807944297790527,
-0.08889968693256378,
-0.003344137454405427,
0.0392293706536293,
0.03465252369642258,
-0.028422096744179726,
-0.07980110496282578,
0.054737500846385956,
-0.014358715154230595,
-0.00925830565392971,
0.013338646851480007,
0.0508984699845314,
-0.04181588441133499,
0.0715300664305687,
0.00038672026130370796,
0.007353165652602911,
-0.05272163823246956,
0.06729552894830704,
-0.056564975529909134,
0.09912270307540894,
0.07625940442085266,
0.0998762845993042,
-0.0532056950032711,
0.04904165118932724,
0.061277128756046295,
0.07100874930620193,
-0.09483636170625687,
0.05373178794980049,
-0.0009563881321810186,
0.020310305058956146,
0.08076082170009613,
0.052769407629966736,
-0.0304957814514637,
-0.053084831684827805,
-0.06855101883411407,
0.022347766906023026,
-0.02326430380344391,
0.0550396554172039,
-0.10698605328798294,
0.03863658756017685,
-0.10689349472522736,
0.052144091576337814,
0.031169096007943153,
-0.025400439277291298,
0.06843078881502151,
0.06547696888446808,
-0.018365923315286636,
0.08071445673704147,
0.10455144941806793,
-0.05746454745531082,
-0.08142432570457458,
-0.08254578709602356,
0.0029521107207983732,
-0.10158950835466385,
-0.08776131272315979,
0.1079033836722374,
0.09918329119682312,
-0.030879061669111252,
0.037002481520175934,
0.09146145731210709,
-0.03766128048300743,
-0.10771752148866653,
-0.08394575864076614,
0.10329370200634003,
0.03261112421751022,
0.06648322939872742,
-0.08252058178186417,
0.03790104016661644,
0.06574837863445282,
-0.056656964123249054,
-0.10927079617977142,
0.06312644481658936,
-0.06997164338827133,
-0.06981923431158066,
0.06579700857400894,
0.017133107408881187,
-0.04666157811880112,
0.07998274266719818,
-0.016445230692625046,
-0.02231540158390999,
-0.06511629372835159,
-0.04492391273379326,
0.004595047794282436,
0.10771995782852173,
-0.0263674259185791,
-0.04281915724277496,
-0.06063758209347725,
0.07207877933979034,
-0.00876912847161293,
0.010699078440666199,
-0.01796695962548256,
0.07319965213537216,
-0.049037739634513855,
0.08372119814157486,
0.10517603158950806,
-0.03284921869635582,
0.002640701597556472,
0.04857994243502617,
-0.009038067422807217,
-0.09315744787454605,
-0.08936603367328644,
-0.04659229889512062,
0.0763125792145729,
0.015975702553987503,
0.03435462713241577,
0.00599626824259758,
0.10573676973581314,
0.09613543003797531,
-0.08465638011693954,
-0.06681777536869049,
0.0584721565246582,
-0.1075190007686615,
0.05064178630709648,
-0.08722472935914993,
0.026956139132380486,
-0.044589631259441376,
-0.04509185999631882,
-0.06570964306592941,
0.07639741897583008,
0.1024823859333992,
0.06784990429878235,
0.025275275111198425,
0.1071663498878479,
0.017489535734057426,
-0.021695591509342194,
0.022071080282330513,
-0.028835566714406013,
-0.03040924295783043,
0.06776699423789978,
0.08905408531427383,
-0.005823603831231594,
-0.0074004242196679115,
0.06036738306283951,
-0.06622134894132614,
0.037879496812820435,
0.06037219986319542,
-0.08584852516651154,
0.0938066616654396,
0.05956139788031578,
-0.026659276336431503,
-0.05751916766166687,
0.09069431573152542,
-0.06072229892015457,
0.04142894595861435,
0.01898306980729103,
-0.06984759867191315,
-0.014066904783248901,
-0.03259021416306496,
0.07151780277490616,
0.02382597327232361,
0.1129927784204483,
0.07100056856870651,
-0.03998837620019913,
-0.03744320571422577,
0.049734052270650864,
-0.058320045471191406,
-0.061821892857551575,
-0.019050512462854385,
0.0008170247310772538,
-0.03924865275621414,
-0.0478874035179615,
0.07489416748285294,
0.04888857156038284,
-0.0776941254734993,
-0.008713523857295513,
-0.06843938678503036,
-0.03923921659588814,
-0.053893472999334335,
-0.10751110315322876,
0.006992678623646498,
-0.0549466609954834,
0.016495229676365852,
0.056640807539224625,
0.0787757933139801,
0.10594502091407776,
0.08511971682310104,
-0.05529596656560898,
0.05943812429904938,
0.024571627378463745,
-0.029655756428837776,
0.020326850935816765,
0.018772397190332413,
0.08058622479438782,
-0.048254527151584625,
-0.03040705807507038,
-0.010366116650402546,
-0.11303918808698654,
0.05791261047124863,
-0.08595086634159088,
0.027966225519776344,
0.10197535157203674,
0.005904574412852526,
0.04965488240122795,
-0.10695231705904007,
0.059049155563116074,
-0.05575331300497055,
-0.0686393678188324,
-0.052655477076768875,
0.011376637034118176,
-0.017174938693642616,
-0.09907719492912292,
0.04204162582755089,
-0.1099374070763588,
-0.06251184642314911,
-0.10251349210739136,
0.10397022217512131,
0.11681102216243744,
-0.0883946642279625,
0.09099676460027695,
-0.073328398168087,
-0.002898778999224305,
0.004333674442023039,
0.10638714581727982,
0.1129579246044159,
0.051642484962940216,
0.09745911508798599,
0.02174782194197178,
0.08645317703485489,
-0.03750037029385567,
0.044673215597867966,
0.031334660947322845,
-0.009450213052332401,
-0.04827217012643814,
-0.046840209513902664,
0.07941228151321411,
0.11383775621652603,
-0.06757043302059174,
0.08503890782594681,
-0.025946399196982384,
-0.03489643335342407,
-0.010566961951553822,
-0.016549009829759598,
0.09370926767587662,
-0.05604773387312889,
-0.08613833785057068,
0.0587039478123188,
0.09923730790615082,
-0.044799573719501495,
-0.08794467896223068,
0.08374688029289246,
0.08493960648775101,
-0.0680069625377655,
-0.029309038072824478,
0.03643694147467613,
0.018654050305485725,
0.044302403926849365,
-0.025397753342986107,
0.00763960974290967,
-0.01731248013675213,
-0.03412257879972458,
0.03887006640434265,
0.03642302751541138,
-0.10480716079473495,
0.027296043932437897,
-0.005437085404992104,
0.021352246403694153,
-0.04655633494257927,
0.04440481588244438,
-0.042348530143499374,
-0.06285390257835388,
-0.08715187758207321,
0.019374534487724304,
0.0770251452922821,
-0.02046915888786316,
-0.11650882661342621,
0.017072932794690132,
0.019512392580509186,
0.033110566437244415,
0.040377479046583176,
0.07538560032844543,
-0.09437153488397598,
0.09380201995372772,
-0.0382431335747242,
0.0684027150273323,
0.06740286946296692,
-0.03639649972319603,
-0.007456526625901461,
-0.07237802445888519,
0.02919258177280426,
0.06509169191122055,
0.030405452474951744,
0.04152333363890648,
0.10434644669294357,
0.0678648054599762,
-0.008199740201234818,
0.07907810807228088,
0.041628189384937286,
0.02308417111635208,
-0.011855852790176868,
-0.029321828857064247,
-0.10203929245471954,
-0.09592513740062714,
-0.011757518164813519,
0.051009077578783035,
0.05596764385700226,
-0.058226969093084335,
0.03549201041460037,
-0.024253200739622116,
0.053546272218227386,
0.004680803511291742,
-0.0020734930876642466,
-0.10034225136041641,
-0.10453107953071594,
0.09403461962938309,
-0.0835672989487648,
-0.03634389862418175,
0.022933324798941612,
0.023278141394257545,
0.10624624788761139,
-0.09775543957948685,
-0.011793929152190685,
0.08393741399049759,
-0.08430186659097672,
-0.08649418503046036,
0.016975020989775658,
-0.08777326345443726,
-0.0634528174996376,
-0.0711478665471077,
-0.0721656009554863,
-0.04274841025471687,
0.09882046282291412,
0.027299072593450546,
0.0637635588645935,
0.0895850658416748,
0.04158182442188263,
0.08677587658166885,
-0.10808948427438736,
0.05570286512374878,
-0.007895383052527905,
-0.027280617505311966,
0.012464621104300022,
0.04162538796663284,
-0.08922938257455826,
-0.09584994614124298,
-0.08101972192525864,
-0.03581370413303375,
-0.11343284696340561,
-0.019585134461522102,
-0.06724296510219574,
-0.05943121388554573,
0.10278709977865219,
0.0010057735489681363,
0.017735803499817848,
0.010025267489254475,
0.01589377596974373,
0.09226521104574203,
-0.08272766321897507,
-0.1190352737903595,
0.10355018079280853,
0.03392929583787918,
-0.08933304995298386,
-0.03425360843539238,
-0.09406592696905136,
0.09482122957706451,
0.09448660165071487,
0.05366678535938263,
-0.022731715813279152,
0.07527696341276169,
0.027501221746206284,
-0.06676650792360306,
0.027961760759353638,
0.02838793210685253,
0.01688564009964466,
-0.07703708112239838,
-0.04089446738362312,
0.03349613398313522,
0.09269017726182938,
-0.029746433719992638,
0.02036600187420845,
-0.0828525573015213,
0.012425771914422512,
0.09898872673511505,
-0.08646820485591888,
-0.08770161867141724,
0.06513116508722305,
-0.020889902487397194,
0.031950581818819046,
0.009364415891468525,
-0.04062654450535774,
0.017956964671611786,
0.100323386490345,
-0.06595677882432938,
-0.07690750062465668,
0.08132705092430115,
-0.061224959790706635,
-0.019522232934832573,
0.02706063538789749,
0.02758811227977276,
0.04376174136996269,
0.09409211575984955,
0.08256597071886063,
0.08171896636486053,
-0.03558266535401344,
-0.08618900924921036,
0.05601764842867851,
0.03774598613381386,
-0.040197405964136124,
-0.0703352838754654,
0.059812359511852264,
-0.024735966697335243,
-0.016717717051506042,
-0.0021868296898901463,
-0.03577344864606857,
-0.04010029882192612,
0.03313715383410454,
-0.11145224422216415,
-0.10824423283338547,
0.08485683798789978,
0.10235858708620071,
-0.087617427110672,
-0.08935442566871643,
0.09207067638635635,
-0.01749192550778389,
0.11364999413490295,
0.055876221507787704,
0.02356075309216976,
-0.10414724797010422,
0.042596206068992615,
0.0976380780339241,
0.0016859819879755378,
0.00016377393330913037,
0.06530102342367172,
0.013719783164560795,
0.08641310036182404,
-0.037945911288261414,
-0.04162988439202309,
0.021920932456851006,
-0.09936324506998062,
0.08776090294122696,
0.06489865481853485,
0.03988969326019287,
0.07751813530921936,
0.06339242309331894,
-0.001633804989978671,
0.07420963048934937,
-0.030606480315327644,
-0.02691882848739624,
-0.01742265187203884,
0.01927618682384491,
0.08699990063905716,
0.1089986115694046,
0.010736782103776932,
0.08725279569625854,
-0.019304409623146057,
0.10514895617961884,
0.02609950862824917,
-0.04528353735804558,
0.06146601215004921,
-0.014576125890016556,
0.018172845244407654,
-0.10260915011167526,
0.10007748752832413,
0.010718770325183868,
0.07351922988891602,
0.04741062596440315,
0.12697282433509827,
0.026964247226715088,
-0.0911000594496727,
-0.09829660505056381,
-0.006637884303927422,
0.021290933713316917,
-0.05870504304766655,
-0.0738791674375534,
0.03672180324792862,
-0.06374455243349075,
-0.0008450213354080915,
-0.11986986547708511,
0.069239042699337,
0.05407494679093361,
-0.07192475348711014,
-0.08894123136997223,
0.05054478347301483,
0.02619750238955021,
-0.026868468150496483,
0.009441226720809937,
0.04092587158083916,
-0.04450999200344086,
-0.006001265253871679,
0.06318935751914978,
-0.020076585933566093,
0.051673147827386856,
-0.10314882546663284,
-0.1069050058722496,
0.03299745172262192,
-0.06796557456254959,
-0.036086179316043854,
-0.018039949238300323,
-0.0619087778031826,
0.06517157703638077,
-0.07744312286376953,
-0.0008344223024323583,
-0.06542197614908218,
0.08700437098741531,
0.09921782463788986,
-0.05371352285146713,
-0.06976467370986938,
0.07506764680147171,
0.005556442774832249,
0.06628566980361938,
0.030207045376300812,
-0.016591154038906097,
0.06865467131137848,
0.005689515266567469,
0.06572968512773514,
0.05873112007975578,
0.09920180588960648,
0.04204477742314339,
-0.04861568287014961,
-0.037522971630096436,
-0.03979339450597763,
0.006911324802786112,
0.11391136795282364,
-0.010292752645909786,
-0.04101893678307533,
-0.010131919756531715,
-0.07382012158632278,
-0.007109849248081446,
-0.094030000269413,
-0.0064954436384141445,
-0.03205367177724838,
0.0020261143799871206,
0.012707347981631756,
-0.062350794672966,
0.0064585465006530285,
-0.09921006858348846,
0.10753999650478363,
0.10874063521623611,
0.10448156297206879,
-0.04314301535487175,
0.007381710689514875,
0.023183507844805717,
-0.045372236520051956,
-0.03173612430691719,
0.008633732795715332,
0.11687307059764862,
0.11053596436977386,
0.09034852683544159,
-0.018926730379462242,
0.10580840706825256,
-0.05823619291186333,
-0.032135386019945145,
0.04469351842999458,
-0.005406455136835575,
0.06064411997795105,
-0.039927806705236435,
0.09056434780359268,
0.035171907395124435,
0.0457991324365139,
-0.03918580338358879,
0.02544429898262024,
-0.09730827808380127,
-0.029077347368001938,
-0.06394701451063156,
-0.04555688053369522,
-0.06716792285442352,
0.06410098075866699,
-0.002534848405048251,
0.09437227994203568,
-0.07475951313972473,
-0.031074078753590584,
0.04561064764857292,
-0.04494762793183327,
0.02844424545764923,
0.08890699595212936,
-0.014897365123033524,
0.062131766229867935,
-0.07801462709903717,
0.06267949193716049,
-0.04792160168290138,
0.09593511372804642,
-0.08049125224351883,
-0.027847804129123688,
-0.022550351917743683,
-0.06683793663978577,
-0.027882078662514687,
0.06698905676603317,
0.06003769114613533,
0.07682495564222336,
0.049143802374601364,
0.033627286553382874,
-0.0017331189010292292,
-0.09479633718729019,
-0.07085981965065002,
-0.03987543284893036,
-0.0750763937830925,
-0.0619157999753952,
-0.05655335262417793,
0.0027773885522037745,
0.03593534603714943,
-0.1085023507475853,
0.002037935657426715,
-0.006156516261398792,
-0.06312413513660431,
0.09615316987037659,
0.07067383080720901,
-0.07097136229276657,
-0.08811674267053604,
0.027766278013586998,
-0.01842060312628746,
-0.04567980021238327,
-0.02274661511182785,
-0.08457103371620178,
0.07774876058101654,
-0.07494953274726868,
0.06380067020654678,
0.06122405081987381,
-0.10943754762411118,
-0.06324112415313721,
-0.08720152825117111,
0.007737357169389725,
0.08852976560592651,
0.000337866396876052,
0.046842850744724274,
-0.10505285114049911,
-0.06453502923250198,
0.06501476466655731,
0.07317419350147247,
0.01027681678533554,
-0.01910811848938465,
-0.08809638768434525,
0.01833534613251686,
-0.03412393853068352,
-0.04280206188559532,
-0.09288249164819717,
0.021517852321267128,
0.10705135017633438,
0.022953616455197334,
0.06116104871034622,
0.0007257220568135381,
0.03024984709918499,
0.0540735125541687,
-0.08605927973985672,
-0.10698457807302475,
-0.05088920518755913,
-0.010884934104979038,
0.06502978503704071,
0.058076173067092896,
-0.06668470054864883,
0.05329444259405136,
-0.07809597998857498,
0.043914809823036194,
-0.0691627711057663,
-0.0854199007153511,
0.08864195644855499,
0.0875820517539978,
0.05353071168065071,
0.049674324691295624,
-0.010087809525430202,
-0.11433187872171402,
0.09369063377380371,
-0.08344921469688416,
-0.04200654476881027,
0.02166737988591194,
-0.0173423420637846,
0.11860271543264389,
0.01590997911989689,
0.06068255752325058,
-0.015176650136709213,
-0.05164274573326111,
0.09302186965942383,
0.07212863117456436,
-0.07745733112096786,
-0.06501458585262299,
-0.07371634244918823,
-0.0004059628117829561,
0.02664681151509285,
-0.04551657289266586,
0.008091513067483902,
0.06044726446270943,
-0.08168124407529831,
-0.020859215408563614,
-0.07929365336894989,
0.07890055328607559,
0.05599996820092201,
-0.052563104778528214,
0.07868410646915436,
-0.044894345104694366,
-0.08750081062316895,
-0.0922202467918396,
-0.013633890077471733,
-0.09999057650566101,
0.0629769116640091,
0.04361530393362045,
0.11098837107419968,
0.1063196063041687,
-0.06714197993278503,
0.07344669848680496,
0.08690193295478821,
-0.06493359804153442,
0.0409528911113739,
0.020752986893057823,
0.015458622947335243,
0.05833026394248009,
0.06798757612705231,
-0.012732095085084438,
-0.05287177115678787,
0.06934866309165955,
-0.05029330030083656,
-0.0613342747092247,
0.029551807790994644,
0.03639807179570198,
-0.021602226421236992,
0.022494608536362648,
-0.10036023706197739,
-0.034624502062797546,
-0.0027987973298877478,
0.0706561878323555,
-0.0653379037976265,
-0.06532274186611176,
-0.05230948328971863,
-0.08937682956457138,
-0.03221218287944794,
0.04598609358072281,
0.006551119964569807,
-0.014575890265405178,
0.06759660691022873,
0.06100986525416374,
-0.0774431973695755,
0.0011473592603579164,
0.04054310917854309,
-0.0921931266784668,
-0.07396454364061356,
0.03932250663638115,
0.027443166822195053,
0.013566773384809494,
0.010528499260544777,
-0.06458663940429688,
0.10921778529882431,
0.09567881375551224,
0.01295500062406063,
-0.0004979163059033453,
-0.11305255442857742,
0.062279969453811646,
0.09230579435825348,
-0.06510955840349197,
-0.09016607701778412,
-0.09844661504030228,
-0.02151031605899334,
-0.08324036747217178,
-0.0344669483602047,
0.01810947060585022,
-0.09335167706012726,
-0.01691712811589241,
-0.08175317198038101,
-0.06060680001974106,
0.05156649276614189,
-0.10713473707437515,
-0.06906691938638687,
-0.05837004631757736,
0.09997250139713287,
0.028750339522957802,
-0.03800247609615326,
-0.07482782006263733,
-0.05041735991835594,
-0.07461519539356232,
-0.06362499296665192,
0.06956404447555542,
-0.11693631857633591,
0.07358784228563309,
0.010003921575844288,
-0.035355597734451294,
0.049513645470142365,
0.019799470901489258,
0.06827801465988159,
0.020458132028579712,
0.08010180294513702,
0.058154840022325516,
-0.09907582402229309,
-0.003134402446448803,
-0.07162895053625107,
0.058803848922252655,
-0.009518329985439777,
0.06690853834152222,
0.035555221140384674,
-0.08410017937421799,
0.08915308117866516,
-0.03526775911450386,
0.10041699558496475,
-0.06579267978668213,
0.09753608703613281,
0.0493457093834877,
-0.006775041576474905,
0.09720152616500854,
0.0423692986369133,
-0.08636079728603363,
-0.022040465846657753,
0.030123474076390266,
-0.029263745993375778,
-0.09984584897756577,
0.016962440684437752,
-0.04661281779408455,
-0.0439169779419899,
-0.05575356259942055,
0.08137327432632446,
0.08020319044589996,
0.0562552809715271,
0.11747370660305023,
0.014070399105548859,
-0.05789976194500923,
0.005774230696260929,
-0.08314494043588638,
0.08809325098991394,
0.07065660506486893,
0.0812891349196434,
-0.11170276254415512,
-0.005658541340380907,
-0.09338495880365372,
-0.10280205309391022,
-0.04509967938065529,
0.028302161023020744,
0.0348249189555645,
0.019443655386567116,
0.042934905737638474,
0.10644914209842682,
-0.05784394592046738,
-0.1120070293545723,
0.06158091872930527,
0.037063341587781906,
0.04013465717434883,
0.08711978048086166,
0.0946819856762886,
0.027832835912704468,
0.05962507799267769,
-0.08722973614931107,
-0.015077303163707256,
0.017567725852131844,
-0.014908241108059883,
0.0735621452331543,
0.013843143358826637,
-0.06730561703443527,
0.04802519083023071,
-0.030231798067688942,
0.09734144806861877,
0.06011863052845001,
-0.10970152169466019,
-0.03878501057624817,
0.022784268483519554,
-0.07959652692079544,
-0.0432581827044487,
-0.05440618842840195,
0.09368914365768433,
0.01531232800334692,
-0.08271659910678864,
0.03363233059644699,
-0.0394783653318882,
-0.08885631710290909,
0.00532390084117651,
0.01196997705847025,
0.00028869762900285423,
0.020941784605383873,
-0.009867627173662186,
0.1020999327301979,
0.025035584345459938,
0.05042362958192825,
-0.08956719934940338,
-0.10762420296669006,
-0.10478736460208893,
-0.026616636663675308,
0.1012100949883461,
0.03707534447312355,
-0.1120394617319107,
-0.01698688417673111,
-0.09775162488222122,
-0.04327050596475601,
0.04832792654633522,
0.0015757723012939095,
0.09454289078712463,
-0.11935234069824219,
-0.057512905448675156,
0.08233336359262466,
0.11182116717100143,
-0.04442322254180908,
0.023714251816272736,
-0.03451135382056236,
-0.059814415872097015,
-0.025853829458355904,
-0.07338416576385498,
0.10463074594736099,
-0.07890833169221878,
0.05646924674510956,
-0.004610325675457716,
-0.07151167839765549,
-0.0862618237733841,
-0.02569095604121685,
0.08954846858978271,
-0.05143026262521744,
0.05523713305592537,
-0.009489825926721096,
0.022020861506462097,
-0.024183489382267,
0.09772588312625885,
0.0716245248913765,
-0.024172425270080566,
-0.004392821807414293,
-0.039427243173122406,
0.0761905238032341,
-0.0032318485900759697,
0.029640061780810356,
-0.07409264147281647,
-0.10273425281047821,
0.07200615108013153,
0.01012264471501112,
-0.07744581252336502,
-0.10105317085981369,
0.05343350023031235,
0.05218770354986191,
0.04617146775126457,
-0.08450454473495483,
0.060910843312740326,
0.0798567533493042,
-0.030550453811883926,
0.09614436328411102,
0.00492487009614706,
-0.019763503223657608,
0.046311382204294205,
0.04371020197868347,
0.05407700687646866,
0.03401966392993927,
-0.02765713818371296,
-0.08922728896141052,
-0.01776411384344101,
-0.05782676488161087,
-0.027382172644138336,
0.07035312801599503,
0.053750038146972656,
0.06652120500802994,
-0.08418208360671997,
0.07505883276462555,
-0.06329023092985153,
0.10673955082893372,
0.04866832122206688,
0.09162530303001404,
-0.01978493668138981,
0.0867605209350586,
-0.06367307901382446,
0.05049065500497818,
-0.03803074359893799,
0.04925883933901787,
-0.10561931133270264,
0.024934004992246628,
0.010106354020535946,
-0.10474972426891327,
-0.06251905858516693,
0.036727141588926315,
-0.05620521306991577,
-0.03902784734964371,
-0.10134417563676834,
0.035064373165369034,
0.04539051279425621,
0.07128980755805969,
-0.07027575373649597,
0.09183132648468018,
-0.0785030722618103,
0.044717397540807724,
-0.005155964754521847,
0.09950283914804459,
0.04475000500679016,
0.0869871973991394,
0.06739688664674759,
0.0954146534204483,
0.09650497883558273,
-0.009092230349779129,
0.0422043614089489,
0.018773963674902916,
0.07619643956422806,
0.022079259157180786,
0.02955085039138794,
-0.03901546820998192,
0.05011765658855438,
0.06111592426896095,
-0.07347559928894043,
0.0709439143538475,
0.05015989765524864,
-0.10644541680812836,
0.10024795681238174,
-0.06972375512123108,
0.05457666888833046,
-0.07390590757131577,
-0.11013022065162659,
-0.09600301831960678,
-0.022142209112644196,
0.0582164041697979,
-0.039806317538022995,
-0.001268884283490479,
0.0810757726430893,
-0.05825486779212952,
0.05165578052401543,
0.05479944497346878,
0.046004753559827805,
0.04164387658238411,
0.1044565737247467,
0.058427829295396805,
0.007940123789012432,
-0.06631957739591599,
0.03626353666186333,
-0.1004008874297142,
0.08051079511642456,
-0.05555471405386925,
-0.08620310574769974,
-0.012373626232147217,
-0.09629499912261963,
-0.06071352958679199,
0.03301110118627548,
0.05903538316488266,
-0.05232921242713928,
0.08184447139501572,
0.07065441459417343,
0.07504399865865707,
0.0463285930454731,
0.022988850250840187,
0.08485475927591324,
-0.04070936515927315,
-0.0519869364798069,
-0.03481090068817139,
-0.07771886885166168,
-0.06738466769456863,
0.02275853417813778,
0.07969947904348373,
-0.03137524798512459,
-0.06380126625299454,
-0.10338647663593292,
0.06488840281963348,
0.027690695598721504,
-0.10108927637338638,
0.0905928835272789,
0.05426548793911934,
-0.07619021087884903,
-0.012001694180071354,
-0.009756538085639477,
0.07780060917139053,
-0.07143045216798782,
0.052441347390413284,
-0.08789777755737305,
-0.026509737595915794
};
