w_t _weights_conv2[/*5][5][5][5*/] = {
-0.007214492652565241,
0.008778135292232037,
-0.014820019714534283,
-0.042003944516181946,
0.05261657387018204,
0.014226640574634075,
0.03234320506453514,
0.023464610800147057,
-0.08235688507556915,
0.006382358726114035,
-0.014353997074067593,
0.0023814719170331955,
0.03211846947669983,
-0.060840122401714325,
0.028508730232715607,
-0.009306916035711765,
0.029134636744856834,
0.07579154521226883,
-0.043309684842824936,
-0.05736862123012543,
-0.08045033365488052,
0.04599527269601822,
-0.024526866152882576,
0.026584073901176453,
-0.06292814761400223,
0.0018911559600383043,
-0.0969291403889656,
0.015636632218956947,
0.0009494288824498653,
0.024109890684485435,
0.005518738180398941,
-0.05533323436975479,
-0.026378875598311424,
-0.012910375371575356,
-0.045822080224752426,
0.01932838000357151,
-0.037328243255615234,
0.09863943606615067,
0.02686755731701851,
-0.014716644771397114,
-0.040081318467855453,
0.07128836959600449,
0.005787750706076622,
0.029126904904842377,
0.011502750217914581,
-0.09195584803819656,
-0.004817678593099117,
-0.037795692682266235,
-0.06199093535542488,
-0.059912148863077164,
-0.12711015343666077,
-0.0045471652410924435,
-0.078232541680336,
-0.028724675998091698,
-0.05737423896789551,
-0.06925468146800995,
0.054953817278146744,
0.09279938787221909,
0.0016598276561126113,
-0.031082015484571457,
-0.03594905883073807,
0.08759915083646774,
0.021200494840741158,
0.06466758251190186,
0.04991764575242996,
0.07164151966571808,
0.020051803439855576,
-0.010928979143500328,
0.07233008742332458,
-0.0028790906071662903,
0.08175495266914368,
0.0020800530910491943,
-0.0833544135093689,
0.005864584818482399,
-0.06590411812067032,
0.03110930696129799,
0.0452256053686142,
0.006227015517652035,
0.03553887829184532,
-0.11560095101594925,
-0.029830964282155037,
-0.04285436123609543,
0.07542289793491364,
-0.08034645020961761,
-0.09300566464662552,
0.12167145311832428,
0.04757149517536163,
-0.03950381278991699,
-0.021419823169708252,
0.031875673681497574,
0.05009235069155693,
0.02275279350578785,
-0.044401902705430984,
-0.06058221682906151,
0.0653826892375946,
0.08685889095067978,
-0.08004861325025558,
-0.09817945212125778,
0.05805492401123047,
-0.04706307500600815,
-0.03545474261045456,
0.03826176002621651,
-0.024938810616731644,
0.034221943467855453,
0.024673892185091972,
0.02261701226234436,
0.013939933851361275,
-0.010670025832951069,
0.07205937057733536,
0.0693860724568367,
0.03038150444626808,
0.04718455672264099,
0.03761475905776024,
-0.04294414445757866,
-0.07706455886363983,
0.032230786979198456,
0.03424695134162903,
-0.06342821568250656,
0.04558167979121208,
0.08064356446266174,
-0.08142954856157303,
0.023229511454701424,
-0.035834021866321564,
0.07687455415725708,
0.07986292243003845,
-0.0780196264386177,
0.07065411657094955,
0.08091606199741364,
-0.05623263120651245,
0.05840069428086281,
-0.04276934638619423,
-0.07627033442258835,
-0.09268110245466232,
0.013119316659867764,
-0.061485301703214645,
0.05433693155646324,
-0.008088730275630951,
0.018518758937716484,
0.010272477753460407,
-0.01671018823981285,
-0.05035784840583801,
-0.061368998140096664,
0.03411395475268364,
-0.053055137395858765,
-0.028888754546642303,
-0.011735213920474052,
-0.01690893992781639,
0.06702758371829987,
-0.043044865131378174,
-0.08035846799612045,
-0.07370466738939285,
0.0828179195523262,
0.050712957978248596,
-0.04011097922921181,
-0.0895480290055275,
0.06903418153524399,
-0.06775476783514023,
-0.02274971641600132,
0.08545774221420288,
-0.04068027436733246,
0.025134533643722534,
-0.04455804452300072,
0.10964296758174896,
0.013287906534969807,
-0.03671807795763016,
-0.035877425223588943,
0.025178290903568268,
0.02875738963484764,
0.06515321135520935,
0.0009154073777608573,
-0.07343138754367828,
0.05098283290863037,
0.09611149877309799,
-0.008389164693653584,
0.053053174167871475,
-0.06935932487249374,
0.08285761624574661,
-0.05565685033798218,
-0.10525359213352203,
-0.05797743797302246,
0.05718144029378891,
-0.013699003495275974,
0.030887065455317497,
-0.054110363125801086,
0.07243504375219345,
-0.0065389699302613735,
0.03992009162902832,
0.08641655743122101,
-0.04665367677807808,
0.08988354355096817,
0.06779181212186813,
0.014990467578172684,
-0.04370434582233429,
-0.013956023380160332,
-0.006878468673676252,
-0.06984763592481613,
-0.07828149944543839,
-0.06963609904050827,
-0.05252808704972267,
0.04846475273370743,
-0.08202332258224487,
-0.017456969246268272,
-0.04929414391517639,
-0.0713614821434021,
0.05241382494568825,
0.07291301339864731,
0.013306183740496635,
-0.02016916126012802,
-0.03215886279940605,
-0.10129312425851822,
0.10756034404039383,
-0.02208160050213337,
-0.021605735644698143,
0.08847007900476456,
0.01900373212993145,
0.06619242578744888,
-0.010282567702233791,
-0.012862704694271088,
0.01743248663842678,
-0.06969253718852997,
-0.0464782789349556,
-0.07941482961177826,
-0.02886624075472355,
0.06895219534635544,
0.04473225399851799,
-0.03986400365829468,
0.05141269043087959,
0.008312104269862175,
-0.0676562488079071,
-0.02548135258257389,
-0.031215405091643333,
0.05351310223340988,
-0.027390766888856888,
-0.01741192489862442,
0.05910809710621834,
-0.033348437398672104,
0.02243192493915558,
0.01650777831673622,
0.009765558876097202,
0.08408641815185547,
0.06095627322793007,
-0.015282192267477512,
0.07641760259866714,
-0.04672339931130409,
-0.042286284267902374,
0.028149111196398735,
0.028448905795812607,
-0.0499575212597847,
-0.06230335682630539,
-0.008064200170338154,
-0.06542601436376572,
0.04877468943595886,
-0.023199839517474174,
-0.06600232422351837,
0.06591687351465225,
-0.0482773631811142,
0.042542047798633575,
0.04400315508246422,
0.010425245389342308,
-0.06324101984500885,
0.049323178827762604,
-0.0015395375667139888,
0.013646431267261505,
-0.0005698332097381353,
-0.056322503834962845,
-0.09894876182079315,
-0.08987943828105927,
0.08203907310962677,
0.06963057816028595,
0.0021311056334525347,
-0.09012912213802338,
0.02125338278710842,
0.08648892492055893,
0.043031878769397736,
-0.022837499156594276,
9.755839710123837e-05,
0.029198404401540756,
0.07922765612602234,
-0.022905219346284866,
0.03476281091570854,
0.005974914878606796,
-0.009112327359616756,
0.08281153440475464,
-0.07429090142250061,
-0.09071827679872513,
0.05931996554136276,
-0.08109895139932632,
-0.07295258343219757,
0.030854035168886185,
-0.03609444946050644,
-0.05558336526155472,
0.041723113507032394,
-0.035513944923877716,
0.021073782816529274,
0.06014624238014221,
-0.04233304038643837,
0.11208949238061905,
0.02575804479420185,
0.03597583621740341,
0.038580793887376785,
0.02739209495484829,
0.06041067838668823,
-0.025874178856611252,
-0.0064160143956542015,
-0.04635974392294884,
-0.05545582249760628,
0.059992846101522446,
-0.08463820070028305,
0.05527685582637787,
0.03471367806196213,
-0.037961289286613464,
0.01941470429301262,
0.023043332621455193,
0.04756947606801987,
-0.050235141068696976,
0.12509773671627045,
0.11135398596525192,
-0.03961047902703285,
-0.058213431388139725,
0.06351426243782043,
0.04276392236351967,
-0.014414927922189236,
0.07352211326360703,
-0.058314286172389984,
-0.03933887183666229,
0.09283669292926788,
-0.05997316911816597,
0.030907923355698586,
0.05756654962897301,
-0.03096875548362732,
0.11524417996406555,
-0.01808108389377594,
0.05604427307844162,
0.03676166385412216,
-0.05234873294830322,
0.08580295741558075,
0.10010601580142975,
0.045217420905828476,
-0.09418372064828873,
-0.018383923918008804,
-0.020210765302181244,
-0.046539563685655594,
-0.06310833245515823,
0.04835988208651543,
0.03570649400353432,
0.06982416659593582,
-0.00021333743643481284,
-0.04962954297661781,
0.01653895527124405,
0.013487910851836205,
0.004912654869258404,
0.04877949878573418,
-0.034602537751197815,
-0.0448492057621479,
-0.05340651422739029,
-0.0369526743888855,
0.006299739703536034,
0.03426925837993622,
-0.03962285816669464,
-0.0744331106543541,
-0.02287793904542923,
-0.04221468046307564,
-0.013348846696317196,
-0.008326060138642788,
-0.023251943290233612,
0.06883355975151062,
-0.022262435406446457,
-0.056041643023490906,
0.07438495755195618,
-0.015750546008348465,
0.047614578157663345,
-0.060526326298713684,
-0.0015877059195190668,
0.006773679051548243,
-0.025673791766166687,
-0.06664526462554932,
-0.041188400238752365,
0.052933238446712494,
-0.07225266844034195,
0.07421042025089264,
-0.00688557606190443,
0.014496187679469585,
-0.06913643330335617,
0.09953506290912628,
0.02045551873743534,
0.03869015350937843,
-0.09159227460622787,
0.02407672069966793,
0.020822862163186073,
0.0014987167669460177,
0.06986584514379501,
-0.005357312969863415,
-0.06831406056880951,
-0.04978575557470322,
0.050834354013204575,
-0.0991365984082222,
0.0700826570391655,
0.004312986973673105,
0.10098569095134735,
-0.07267212122678757,
0.0007532892050221562,
-0.044589750468730927,
0.052687130868434906,
0.03533036261796951,
0.030802857130765915,
-0.04591700807213783,
0.08749689161777496,
0.011466792784631252,
0.05833803489804268,
0.005715689621865749,
0.08967801183462143,
-0.02821924351155758,
-0.02975565195083618,
-0.04953804239630699,
0.07929424941539764,
0.013169067911803722,
0.08669339865446091,
-0.057800646871328354,
-0.025651322677731514,
-0.09041833877563477,
0.032435398548841476,
-0.0032210382632911205,
0.08317502588033676,
0.026942286640405655,
-0.04400927573442459,
0.03453843668103218,
-0.10648839920759201,
-0.04458041116595268,
0.06255635619163513,
0.117110475897789,
0.01878592185676098,
-0.03635750338435173,
0.10881564021110535,
0.004206399898976088,
0.09247622638940811,
-0.06738124787807465,
-0.027231374755501747,
-0.03568567335605621,
0.023071032017469406,
0.015576356090605259,
0.03522184491157532,
0.053594402968883514,
0.02911507338285446,
-0.05441897734999657,
0.016500938683748245,
0.02177983522415161,
0.016408145427703857,
0.04255249351263046,
0.048926111310720444,
-0.05062316730618477,
-0.07630113512277603,
0.10079344362020493,
0.07935775816440582,
-0.010810067877173424,
0.07423265278339386,
-0.09081871807575226,
0.07408847659826279,
0.08845538645982742,
-0.005559982266277075,
0.03713924437761307,
0.08257512748241425,
-0.036497291177511215,
0.05831509083509445,
-0.09280921518802643,
-0.004884899128228426,
0.055525269359350204,
-0.04258662462234497,
-0.07610015571117401,
-0.016470665112137794,
0.029421696439385414,
0.11634369194507599,
0.01592209003865719,
0.04703248664736748,
0.04684070125222206,
-0.06792086362838745,
0.0602305643260479,
-0.05922909453511238,
-0.07571189105510712,
0.08368970453739166,
-0.021002596244215965,
-0.036317549645900726,
0.07757852971553802,
-0.08103424310684204,
0.031126802787184715,
-0.06826531141996384,
0.024118445813655853,
-0.027703095227479935,
-0.028598234057426453,
-0.023687513545155525,
0.0004023826331831515,
-0.035479336977005005,
0.059519171714782715,
-0.004667131695896387,
0.014788390137255192,
0.05441118776798248,
-0.07323773950338364,
0.04027009382843971,
-0.07557182759046555,
0.03787613660097122,
-0.009562673047184944,
-0.026302387937903404,
-0.059533726423978806,
-0.04001148045063019,
-0.0629996806383133,
-0.007800428196787834,
0.019785869866609573,
0.06746625900268555,
-0.09349093586206436,
-0.004529611207544804,
0.02238846942782402,
0.04850204288959503,
-0.040346983820199966,
-0.058309733867645264,
-0.033905647695064545,
0.09394937753677368,
0.028704851865768433,
-0.09182696044445038,
0.017653485760092735,
0.04980556294322014,
0.09092045575380325,
0.05480067804455757,
-0.07792925834655762,
0.004998314660042524,
-0.04066693037748337,
0.01336031872779131,
0.030463671311736107,
-0.05854751914739609,
-0.014274169690907001,
0.03430645167827606,
-0.05805552005767822,
-0.07149059325456619,
0.08611564338207245,
0.04144402593374252,
-0.01088782586157322,
-0.03120340220630169,
-0.08036917448043823,
-0.0648755356669426,
0.024819599464535713,
0.06242251396179199,
0.09927569329738617,
-0.07404889166355133,
0.08839382231235504,
0.07266225665807724,
0.030446819961071014,
-0.026344647631049156,
-0.02336520329117775,
0.06835123896598816,
-0.044538553804159164,
0.08749324083328247,
0.02417236566543579,
0.0728730782866478,
-0.06247745081782341,
-0.07905217260122299,
0.09961678087711334,
0.09816927462816238,
0.051671385765075684,
-0.011471246369183064,
-0.11090665310621262,
0.009492752142250538,
-0.028589338064193726,
0.006002326495945454,
-0.01554211974143982,
-0.0037308400496840477,
0.0442839041352272,
0.09076645970344543,
-0.00028240412939339876,
-0.09015680104494095,
-0.06591371446847916,
0.12378175556659698,
-0.02041531354188919,
0.010911837220191956,
-0.10614302009344101,
0.07288982719182968,
0.1460554152727127,
0.08900763094425201,
0.03491685166954994,
0.08137186616659164,
0.029021024703979492,
0.004865253809839487,
-0.05362662300467491,
-0.11154669523239136,
-0.08569932729005814,
0.1166183352470398,
-0.036387741565704346,
-0.02046296000480652,
-0.0007721822476014495,
0.00583844305947423,
0.045973774045705795,
0.1038680449128151,
0.02262486331164837,
-0.08748409897089005,
0.08535760641098022,
0.13562263548374176,
0.004960205405950546,
-0.09473715722560883,
-0.07577814161777496,
0.01833086460828781,
0.05220057815313339,
0.01708720251917839,
0.014324811287224293,
0.05237492918968201,
0.009256741032004356,
-0.002192107494920492,
-0.023284558206796646,
-0.076771579682827,
-0.041459035128355026,
0.036425165832042694,
-0.021212954074144363,
0.03634142875671387,
0.029280496761202812,
0.06584879010915756,
-0.0470205619931221,
-0.08486858755350113,
-0.07338026165962219,
-0.004595969337970018,
-0.02453424781560898,
0.03944253548979759,
-0.054033610969781876,
-0.0021314339246600866,
0.06023377925157547,
0.05530370771884918,
0.06766726821660995,
-0.04327510669827461,
0.08270084857940674,
0.02334914356470108
};
