w_t _weights_ip2[/*10][40*/] = {
-0.04647631570696831,
0.07504095137119293,
-0.06341401487588882,
-0.008597210980951786,
-0.006713408511132002,
0.12601879239082336,
0.1583576649427414,
-0.14951425790786743,
0.012376969680190086,
-0.050296273082494736,
-0.00019488742691464722,
0.15713897347450256,
-0.13319605588912964,
0.07147370278835297,
-0.14709018170833588,
-0.1539296656847,
-0.026271279901266098,
-0.011515671387314796,
-0.007181527558714151,
0.07647622376680374,
0.13496212661266327,
0.14751970767974854,
0.16329209506511688,
0.1207590401172638,
-0.12414944171905518,
0.12325402349233627,
-0.06121772155165672,
-0.1297527551651001,
0.029564695432782173,
0.05664979666471481,
0.11674563586711884,
-0.05563155189156532,
-0.1523028165102005,
0.06597991287708282,
0.14211370050907135,
-0.1042565181851387,
0.09811050444841385,
0.09591502696275711,
0.12304580956697464,
-0.008940298110246658,
-0.03203774243593216,
0.11257810145616531,
-0.1152532771229744,
0.05677913874387741,
0.09814216196537018,
0.18262521922588348,
-0.06403593719005585,
0.15158183872699738,
0.15380339324474335,
-0.06932100653648376,
0.16807475686073303,
-0.12307333201169968,
-0.16494165360927582,
0.09844128787517548,
0.04991549998521805,
-0.15444882214069366,
-0.14662152528762817,
-0.009159892797470093,
0.051183316856622696,
0.12507125735282898,
-0.11382362991571426,
-0.07812201231718063,
0.08703947067260742,
0.1079363152384758,
0.1563817858695984,
0.0566304512321949,
0.08583907783031464,
0.15299460291862488,
-0.0684690922498703,
-0.12035755813121796,
0.03288450837135315,
0.17701157927513123,
0.10251371562480927,
-0.0037332966458052397,
0.08563743531703949,
-0.13759182393550873,
-0.05190672725439072,
-0.09068091958761215,
0.158730611205101,
-0.11533190310001373,
0.020281044766306877,
0.13263429701328278,
-0.16885103285312653,
-0.10220132023096085,
0.04137125983834267,
0.0023657141719013453,
-0.06908748298883438,
-0.04284621402621269,
-0.12459074705839157,
-0.10058162361383438,
-0.11449084430932999,
-0.015571544878184795,
-0.12337903678417206,
-0.12937842309474945,
-0.08458907902240753,
0.10809359699487686,
0.16011682152748108,
-0.07339989393949509,
-0.08604101091623306,
-0.013609353452920914,
0.08589621633291245,
0.09771271049976349,
-0.1218433529138565,
0.0594792440533638,
-0.09539209306240082,
-0.14507819712162018,
0.05546395480632782,
-0.05719175189733505,
0.08516447991132736,
0.003241391619667411,
0.0362367257475853,
-0.09550540149211884,
0.08186633884906769,
-0.14924615621566772,
0.11324933171272278,
-0.15078367292881012,
-0.012931916862726212,
0.1226307675242424,
-0.10508434474468231,
0.13246384263038635,
0.017788926139473915,
-0.11818061769008636,
-0.016477320343255997,
-0.17070230841636658,
-0.05347544327378273,
0.0062451353296637535,
-0.061109449714422226,
0.12419328838586807,
-0.13306981325149536,
0.11028765141963959,
-0.16202741861343384,
0.1386488527059555,
-0.038910213857889175,
0.11963465064764023,
0.019367065280675888,
-0.13444818556308746,
-0.13908784091472626,
-0.004995620343834162,
0.0032133159693330526,
-0.14294350147247314,
0.005230477545410395,
-0.09205549955368042,
0.10760020464658737,
-0.0031029989477247,
-0.13559027016162872,
-0.15181033313274384,
-0.012947933748364449,
0.08813513070344925,
-0.06297021359205246,
-0.054078858345746994,
0.1300867646932602,
0.021047379821538925,
0.15450046956539154,
-0.09602048993110657,
-0.12274196743965149,
-0.001471832045353949,
-0.06710061430931091,
-0.011686042882502079,
0.0007991788443177938,
-0.10598181933164597,
0.06152622774243355,
-0.1412648856639862,
0.1657208800315857,
0.15596529841423035,
0.03625203296542168,
0.0067550064995884895,
0.09113868325948715,
0.15313655138015747,
-0.1466352939605713,
-0.07884671539068222,
0.03371456265449524,
0.11794853210449219,
0.10691659152507782,
0.04413628578186035,
-0.02707613632082939,
-0.07640731334686279,
-0.12805530428886414,
-0.12051698565483093,
-0.09154310077428818,
-0.14110538363456726,
0.1279977709054947,
0.14658133685588837,
-0.03479854762554169,
0.04341452568769455,
0.002226133132353425,
0.05839987099170685,
0.16632774472236633,
0.13248729705810547,
0.026919184252619743,
0.13891533017158508,
0.000682711077388376,
0.049836184829473495,
-0.1299992948770523,
-0.08764087408781052,
0.11909642070531845,
0.0766969695687294,
0.03648268058896065,
-0.13000324368476868,
0.10464882105588913,
-0.1445828378200531,
-0.005467729177325964,
0.04067641869187355,
0.06351550668478012,
0.10964351147413254,
0.012935892678797245,
-0.140788733959198,
0.10023925453424454,
0.00638682721182704,
0.15058089792728424,
-0.09371968358755112,
0.0046921661123633385,
-0.13932731747627258,
0.055300645530223846,
0.05993399769067764,
-0.025982148945331573,
-0.06071675568819046,
-0.006378122605383396,
-0.08884967863559723,
0.09348767250776291,
0.02416328899562359,
-0.08850189298391342,
0.035459455102682114,
-0.1355668604373932,
0.029741952195763588,
-0.014353514648973942,
0.048280730843544006,
-0.12782929837703705,
0.11359597742557526,
0.026889460161328316,
0.09699735045433044,
0.08665359020233154,
-0.00540141062811017,
-0.1551409661769867,
0.08301962167024612,
0.02155621536076069,
-0.10809388011693954,
0.14502562582492828,
0.0710296705365181,
0.1405065953731537,
0.004450336564332247,
0.0751037746667862,
0.13888250291347504,
0.017113827168941498,
-0.02299114316701889,
-0.05551455169916153,
-0.15215405821800232,
0.04598313570022583,
0.02823241427540779,
0.0375664047896862,
-0.06447029858827591,
-0.0474422387778759,
-0.02158300206065178,
-0.12520071864128113,
-0.02603842504322529,
0.009157697670161724,
-0.09942946583032608,
-0.016071977093815804,
0.13330109417438507,
-0.14056582748889923,
-0.09036349505186081,
-0.1258477419614792,
-0.14525261521339417,
-0.11665292829275131,
-0.04274798929691315,
0.08939547091722488,
-0.1456545889377594,
0.12094148993492126,
-0.08675114810466766,
-0.1298595815896988,
-0.16687960922718048,
-0.0018265449907630682,
-0.047264255583286285,
-0.15149924159049988,
0.032214779406785965,
-0.11665132641792297,
0.1726205199956894,
-0.0472613163292408,
-0.04193123057484627,
-0.027528604492545128,
0.08836108446121216,
0.1386064887046814,
-0.04564807936549187,
-0.0784863606095314,
0.13737693428993225,
-0.0529271736741066,
0.12678061425685883,
-0.058022186160087585,
0.11850287765264511,
-0.08768600225448608,
-0.07821021229028702,
0.1011609360575676,
0.11490832269191742,
0.06182084232568741,
-0.0033709818962961435,
0.17249591648578644,
0.15624406933784485,
-0.047582004219293594,
-0.10766588151454926,
0.14782381057739258,
0.09173140674829483,
-0.11400379240512848,
0.13090747594833374,
-0.10076594352722168,
-0.1275048702955246,
-0.10221374779939651,
0.033985357731580734,
0.12316042184829712,
0.14203700423240662,
-0.021230317652225494,
0.11933726817369461,
0.15003474056720734,
-0.014814037829637527,
0.11802098155021667,
-0.1476375013589859,
-0.012854923494160175,
0.08625496178865433,
-0.03159097954630852,
-0.15133023262023926,
-0.10755092650651932,
0.11021493375301361,
0.019603228196501732,
0.11385730654001236,
0.11586210876703262,
0.11252900213003159,
-0.0129584651440382,
0.09243297576904297,
0.14446328580379486,
-0.09642051160335541,
-0.06735553592443466,
0.13731026649475098,
-0.029820114374160767,
-0.05403998866677284,
0.05495021119713783,
0.09641972929239273,
-0.08508241176605225,
0.10250894725322723,
0.1324518471956253,
0.11142763495445251,
-0.040715642273426056,
0.11574676632881165,
-0.10924474895000458,
0.10400483012199402,
-0.1387684941291809,
0.09345890581607819,
-0.049989327788352966,
0.08965544402599335,
0.027042873203754425,
0.039017751812934875,
0.04729786142706871,
0.050483353435993195,
0.03142550587654114,
0.07990964502096176,
0.12543439865112305,
0.10901639610528946,
-0.1666228473186493,
-0.034840211272239685,
0.14599455893039703,
0.06856559962034225,
0.0772642195224762,
-0.012771829962730408,
-0.07077299803495407,
-0.1255689412355423,
-0.05106474831700325,
-0.01782628335058689,
-0.13842587172985077,
-0.12046585977077484,
-0.029515696689486504,
-0.13563038408756256,
0.01826510578393936,
0.11263072490692139,
-0.009812506847083569,
-0.08492367714643478,
-0.1423124074935913,
0.09987498074769974,
0.12248429656028748,
0.0034479815512895584,
0.011947952210903168,
-0.06239129975438118,
0.07378781586885452,
0.04849215969443321,
-0.015894433483481407,
0.10050709545612335,
-0.0885215774178505,
0.023647909983992577,
-0.0033272842410951853,
-0.05911434814333916,
0.046010177582502365,
-0.05416576936841011,
-0.11588715016841888,
-0.05770224332809448,
-0.08047682791948318,
-0.0889284685254097,
-0.05937250331044197,
0.11380806565284729,
-0.15697675943374634,
0.03116031549870968,
-0.07578281313180923,
-0.0003791356284637004,
0.04803121089935303,
-0.01454712264239788
};
