w_t _weights_conv1[/*5][1][5][5*/] = {
0.07008974254131317,
0.007470081094652414,
0.06024806946516037,
-0.0704188123345375,
-0.15087908506393433,
0.20818033814430237,
-0.1720929592847824,
0.018638240173459053,
-0.03315452113747597,
0.05425215885043144,
0.164372980594635,
-0.14567358791828156,
-0.0713115781545639,
-0.09934372454881668,
-0.014571137726306915,
0.08512843400239944,
-0.17896509170532227,
-0.020826900377869606,
-0.032995402812957764,
-0.2022491842508316,
-0.15466956794261932,
0.17231519520282745,
0.0970907062292099,
-0.07779620587825775,
-0.07248496264219284,
0.05508120730519295,
0.0934172123670578,
0.10316207259893417,
-0.025850046426057816,
-0.013875062577426434,
0.14971695840358734,
0.15231770277023315,
0.03685892000794411,
-0.002759271999821067,
0.018591318279504776,
0.03791631758213043,
-0.18828877806663513,
-0.11554185301065445,
0.12781475484371185,
0.0849076583981514,
0.05532672256231308,
-0.18420356512069702,
-0.0737404152750969,
-0.023481206968426704,
0.18579061329364777,
0.10508332401514053,
-0.05700625851750374,
-0.14537253975868225,
0.07020490616559982,
0.15674607455730438,
-0.11987857520580292,
0.10481730848550797,
0.21629616618156433,
0.14583362638950348,
0.008109243586659431,
0.22472696006298065,
0.15380750596523285,
0.24525122344493866,
0.00793577078729868,
-0.05240725353360176,
0.004304809030145407,
0.17308656871318817,
0.19791258871555328,
-0.12582315504550934,
0.07689455896615982,
0.20544679462909698,
-0.054259710013866425,
-0.06920409947633743,
-0.1902790665626526,
0.0022219237871468067,
-0.10166874527931213,
-0.0383705198764801,
0.05015170946717262,
-0.19424189627170563,
-0.19306537508964539,
0.07782750576734543,
-0.13101595640182495,
0.08191289752721786,
0.22380605340003967,
0.23437878489494324,
-0.13803450763225555,
-0.16283199191093445,
0.1435178965330124,
-0.07021335512399673,
0.21710915863513947,
-0.19597883522510529,
-0.16612444818019867,
0.1758376657962799,
0.002755659632384777,
0.09509210288524628,
0.044342588633298874,
-0.09831351041793823,
0.19444972276687622,
0.06166169047355652,
0.12648075819015503,
0.056206777691841125,
-0.18276077508926392,
0.046774543821811676,
0.18779918551445007,
-0.09177647531032562,
-0.02713147923350334,
0.18867209553718567,
-0.04234322905540466,
-0.03908640891313553,
0.04040108248591423,
-0.10831692814826965,
-0.06016841158270836,
-0.0338226780295372,
-0.12976226210594177,
-0.020180700346827507,
0.19357556104660034,
-0.055551644414663315,
0.10116913169622421,
-0.0203433558344841,
-0.11811622977256775,
-0.1520230919122696,
0.044249486178159714,
-0.1962081640958786,
-0.11056376993656158,
-0.09008528292179108,
-0.04678335413336754,
0.1493665874004364,
0.02643435075879097,
0.07035494595766068,
0.038637757301330566
};
